This is an ARPA-format language model file, generated by CMU Sphinx
\data\
ngram 1=400
ngram 2=1082
ngram 3=1307

\1-grams:
-3.2721	<UNK>	0.0000
-2.7884	's	-1.0510
-2.4874	*	-0.4657
-3.2721	+	-1.0520
-2.7884	/	-1.0529
-1.2699	</s>	-2.0000
-98.9998	<s>	-0.4131
-2.9645	=	-1.0543
-2.0614	_	-0.6539
-2.4204	_a	-0.4389
-1.9038	a	-0.3017
-2.6635	able	-1.5307
-3.2721	abnormal	-1.0313
-2.5666	absolute	-0.4120
-2.9645	actually	-1.0534
-3.2721	addition	-1.0457
-3.2721	after	-1.0531
-3.2721	ago	-1.0313
-2.7884	agree	-0.2253
-2.9645	agreed	-0.0660
-2.3113	all	-0.9865
-3.2721	along	-1.0355
-3.2721	already	-1.0536
-2.1863	also	-0.1342
-2.7884	am	-1.0969
-2.9645	an	-1.0548
-2.5666	ananlada	-0.4124
-1.9645	and	-0.6876
-3.2721	another	-1.0520
-2.7884	any	-1.0536
-2.2655	anytopo	-0.4008
-2.7884	apparently	-0.2195
-1.9868	are	-0.3006
-2.9645	arrangement	-1.0240
-2.2241	arthur	-2.0702
-2.3113	as	-0.2213
-3.2721	ask	-1.0517
-3.2721	assigns	-1.0498
-2.9645	assume	-1.0333
-2.3624	at	-0.3269
-2.9645	aug	-0.0767
-2.5666	b	-1.0285
-2.0614	be	-0.4592
-2.9645	before	-1.0469
-2.6635	believe	-0.0755
-2.9645	better	-0.0762
-2.4874	big	-0.0734
-2.7884	bigbird	-0.2053
-2.9645	both	-0.0758
-2.7884	but	-0.2093
-2.4874	by	-0.2265
-2.4874	c	-1.0467
-2.2655	calo	-0.6360
-2.9645	calobig	-0.0769
-2.5666	can	-0.4101
-2.7884	cant	-0.2291
-3.2721	carry	-1.0546
-2.7884	case	-0.2239
-2.9645	cases	-0.0705
-2.9645	cause	-1.0419
-3.2721	causing	-1.0550
-2.1863	cent	-0.3079
-2.9645	certain	-0.0753
-3.2721	certainty	-1.0503
-2.2655	chan	-0.2782
-2.5666	change	-0.6004
-3.2721	changed	-1.0457
-2.2241	cheating	-0.8142
-3.2721	checked	-1.0438
-2.5666	chotimongkol	-0.3896
-3.2721	close	-1.0457
-3.2721	closer	-1.0550
-2.7884	code	-0.2178
-2.9645	complication	-1.0527
-2.7884	component	-1.0469
-2.4204	components	-0.2400
-2.6635	computation	-0.3025
-2.9645	conclude	-0.0724
-3.2721	confirms	-1.0517
-2.4874	cont	-0.2724
-2.7884	correct	-1.0443
-2.5666	could	-0.1547
-3.2721	current	-1.0543
-3.2721	currently	-1.0548
-2.7884	daines	-0.2060
-2.6635	data	-0.3004
-2.9645	dave	-1.0293
-2.7884	david	-1.0971
-3.2721	dealing	-1.0534
-3.2721	decide	-1.0543
-3.2721	decision	-1.0501
-1.9433	decode	-2.0770
-2.9645	defunct	-1.0479
-3.2721	description	-1.0313
-2.9645	despite	-0.0577
-2.9645	detail	-0.0755
-2.4204	difference	-0.2647
-2.9645	different	-1.0278
-3.2721	differently	-1.0438
-2.9645	directory	-0.0760
-3.2721	discovered	-1.0503
-3.2721	distributions	-1.0438
-3.2721	do	-1.0498
-3.2721	doing	-1.0508
-3.2721	e	-1.0546
-3.2721	each	-1.0546
-3.2721	effect	-1.0550
-2.6635	effectively	-0.3295
-2.6635	eight	-1.0720
-2.9645	eighty	-1.0484
-2.9645	eleven	-0.0746
-2.9645	equal	-1.0255
-3.2721	evandro	-1.0313
-2.7884	even	-1.0969
-2.9645	everything	-0.0769
-2.9645	exactly	-1.0350
-3.2721	examination	-1.0550
-2.2655	experiment	-0.3805
-2.5666	experiments	-0.1333
-2.9645	fact	-0.0720
-2.9645	fewer	-0.0758
-3.2721	fifteen	-1.0524
-3.2721	fifty	-1.0501
-2.9645	figure	-0.0767
-3.2721	file	-1.0548
-3.2721	fill	-1.0438
-2.5666	first	-0.1530
-2.1194	five	-0.4100
-3.2721	floating	-1.0531
-2.6635	floor	-0.3090
-2.7884	floored	-0.2055
-2.4874	flooring	-0.4413
-3.2721	following	-1.0355
-2.3624	for	-0.5286
-3.2721	forty	-1.0541
-2.4204	four	-1.0415
-2.6635	further	-0.0753
-2.1194	g	-0.3994
-2.5666	gauden	-0.4010
-2.1863	gaussian	-0.4499
-2.5666	gaussians	-0.1506
-3.2721	get	-1.0501
-2.7884	give	-1.0491
-2.9645	given	-1.0543
-2.7884	go	-0.2068
-3.2721	going	-1.0536
-3.2721	got	-1.0481
-3.2721	guess	-1.0536
-2.9645	h	-0.0722
-3.2721	had	-1.0498
-2.9645	happen	-0.0660
-2.7884	happens	-0.2125
-3.2721	hard	-1.0550
-2.3624	has	-0.5390
-2.1194	have	-0.1195
-3.2721	haven	-1.0548
-3.2721	havent	-1.0548
-2.7884	having	-1.0409
-2.9645	he	-1.0546
-3.2721	healthy	-1.0524
-2.9645	help	-0.0660
-2.7884	here	-1.0907
-3.2721	hi	-1.0531
-3.2721	him	-1.0550
-2.9645	however	-1.0382
-2.7884	huggins	-1.0971
-2.1863	hundred	-0.3525
-1.9038	i	-0.5127
-3.2721	idea	-1.0517
-2.4204	if	-0.4999
-2.5666	implementation	-0.1448
-1.5843	in	-0.5354
-2.9645	inaccurate	-0.0534
-2.7884	incidence	-0.2060
-3.2721	indeed	-1.0355
-3.2721	infinite	-1.0546
-3.2721	instead	-1.0491
-3.2721	investigating	-1.0517
-1.7884	is	-0.4669
-3.2721	isnt	-1.0548
-2.3113	it	-0.6196
-2.7884	its	-1.0491
-3.2721	jump	-1.0313
-2.5666	just	-0.1583
-2.9645	k	-0.0762
-2.7884	know	-0.2260
-2.9645	latter	-0.0769
-3.2721	less	-1.0550
-3.2721	level	-1.0313
-2.7884	likelihood	-0.2198
-3.2721	lines	-1.0491
-3.2721	logic	-1.0512
-2.9645	look	-0.0755
-3.2721	lot	-1.0491
-1.9231	m	-0.2790
-2.9645	mail	-0.0739
-2.4204	make	-0.2731
-2.7884	many	-0.2253
-3.2721	mathematically	-1.0546
-3.2721	maybe	-1.0501
-2.6635	me	-0.3098
-2.3113	mean	-0.1824
-3.2721	means	-1.0550
-2.5666	might	-0.1578
-3.2721	models	-1.0550
-3.2721	modem	-1.0534
-2.3624	more	-0.1826
-2.9645	most	-0.0713
-2.5666	mosur	-0.4110
-2.6635	much	-0.0741
-2.9645	must	-0.0736
-3.2721	my	-1.0541
-2.9645	n	-0.0760
-2.5666	need	-0.5642
-2.5666	nine	-1.0739
-2.9645	nineteen	-0.0767
-2.6635	no	-0.3310
-2.6635	non	-1.5348
-2.9645	none	-0.0767
-2.9645	normal	-1.0436
-2.5666	not	-0.4019
-3.2721	notice	-1.0503
-3.2721	number	-1.0491
-3.2721	numbers	-1.0484
-2.9645	objection	-0.0720
-2.7884	observation	-0.2222
-2.9645	observations	-1.0387
-2.9645	observed	-0.0765
-1.8506	of	-0.5027
-2.7884	office	-1.0969
-3.2721	oh	-1.0498
-2.4874	on	-0.2291
-1.9231	one	-0.3167
-2.6635	only	-0.3063
-2.5666	or	-0.4024
-2.5666	other	-0.1607
-3.2721	others	-1.0550
-2.7884	our	-0.2275
-2.7884	out	-0.2060
-2.7884	p	-0.2246
-3.2721	parameter	-1.0548
-2.9645	parameters	-1.0520
-3.2721	particular	-1.0550
-2.1863	per	-1.1111
-2.7884	perform	-1.0428
-3.2721	performance	-1.0550
-2.9645	perhaps	-0.0762
-2.7884	phone	-1.0971
-2.9645	place	-0.0534
-3.2721	plan	-1.0457
-2.9645	plenty	-0.0713
-2.3113	point	-0.3336
-2.9645	points	-0.0727
-2.9645	possibly	-0.0660
-3.2721	potentially	-1.0546
-3.2721	printed	-1.0539
-2.9645	probably	-0.0767
-3.2721	problem	-1.0505
-3.2721	procedure	-1.0313
-2.7884	process	-1.0293
-3.2721	r	-1.0539
-2.7884	ravi	-0.2298
-2.5666	ravishankar	-0.4124
-2.5666	re	-0.3896
-2.3624	reason	-0.3190
-2.9645	reasons	-0.0679
-3.2721	recently	-1.0548
-2.9645	record	-0.0755
-3.2721	regards	-1.0313
-2.5666	removal	-1.3831
-2.7884	remove	-0.2102
-2.9645	removed	-1.0350
-2.9645	resent	-0.0762
-3.2721	rest	-1.0491
-2.5666	result	-0.3710
-2.9645	results	-1.0192
-3.2721	right	-1.0313
-3.2721	round	-1.0550
-3.2721	running	-1.0539
-2.4874	s	-1.0404
-2.9645	safeguard	-0.0660
-2.6635	same	-0.3312
-2.9645	sample	-0.0729
-2.4204	say	-0.2475
-2.9645	scary	-0.0534
-2.7884	scylla	-1.0285
-2.9645	second	-0.0703
-3.2721	see	-1.0536
-2.4874	seems	-0.6105
-3.2721	senone	-1.0534
-3.2721	senones	-1.0539
-2.6635	sense	-0.0643
-3.2721	set	-1.0438
-2.4204	seven	-0.5042
-2.3113	seventy	-0.2207
-2.3624	should	-0.1803
-3.2721	shows	-1.0503
-2.9645	similar	-0.0762
-3.2721	since	-1.0484
-3.2721	single	-1.0546
-2.7884	situation	-0.2277
-2.5666	six	-0.4135
-2.9645	sixteen	-1.0520
-2.9645	slow	-1.0310
-3.2721	small	-1.0541
-3.2721	smaller	-1.0550
-2.4204	so	-1.0599
-2.3624	some	-0.1850
-2.3113	something	-0.6094
-3.2721	specific	-1.0457
-2.9645	speculate	-0.0765
-3.2721	spent	-1.0534
-2.7884	sphinxtrain	-0.2070
-3.2721	still	-1.0548
-3.2721	strange	-1.0550
-3.2721	subtly	-1.0548
-2.6635	such	-0.3245
-2.9645	system	-1.0431
-2.9645	t	-1.0510
-3.2721	talk	-1.0534
-3.2721	task	-1.0313
-2.5666	ten	-0.4108
-3.2721	test	-1.0550
-2.9645	testing	-0.0534
-3.2721	than	-1.0355
-1.9433	that	-0.3779
-1.3517	the	-0.5075
-3.2721	their	-1.0550
-2.4874	them	-0.0492
-2.9645	then	-1.0512
-2.0351	there	-0.4482
-2.7884	they	-0.2234
-3.2721	thing	-1.0546
-3.2721	things	-1.0484
-2.7884	thirty	-0.2289
-2.0894	this	-0.4075
-2.5666	those	-1.3893
-2.6635	though	-0.3037
-2.1194	thousand	-0.3734
-3.2721	three	-1.0531
-2.9645	through	-0.0577
-2.9645	time	-1.0340
-1.6635	to	-0.4415
-3.2721	tomorrow	-1.0457
-2.7884	too	-0.2296
-2.5666	trained	-1.3845
-2.5666	training	-0.1338
-2.9645	transfer	-1.0255
-3.2721	transferring	-1.0543
-2.5666	treatment	-0.1460
-2.7884	twenty	-1.0450
-2.1194	two	-1.1393
-2.4874	u	-0.2181
-3.2721	under	-1.0541
-3.2721	understand	-1.0531
-3.2721	up	-1.0498
-3.2721	upgrade	-1.0546
-2.6635	use	-0.3042
-2.9645	used	-1.0303
-2.7884	using	-0.2229
-2.7884	valid	-0.1951
-2.9645	value	-1.0238
-1.9868	variance	-0.4779
-3.2721	variances	-1.0457
-2.3624	vector	-0.2956
-2.5666	vectors	-0.3668
-2.9645	very	-1.0548
-3.2721	warning	-1.0550
-3.2721	warnings	-1.0313
-2.5666	was	-0.4091
-2.9645	way	-1.0212
-3.2721	ways	-1.0491
-1.8031	we	-0.3135
-3.2721	welcomed	-1.0546
-2.7884	well	-0.2070
-2.7884	wer	-1.0305
-2.5666	were	-0.4096
-2.4874	what	-0.2023
-3.2721	where	-1.0512
-2.9645	whereas	-1.0534
-2.5666	whether	-0.1550
-2.6635	which	-0.3293
-2.7884	while	-0.2100
-2.9645	whole	-1.0503
-2.0894	why	-0.3356
-1.8031	will	-0.2008
-2.3624	with	-0.3260
-2.9645	without	-0.0762
-3.2721	won	-1.0548
-3.2721	wont	-1.0515
-3.2721	would	-1.0543
-2.9645	wrote	-0.0534
-3.2721	y	-1.0548
-3.2721	years	-1.0550
-3.2721	yes	-1.0531
-2.7884	yet	-0.2181
-2.5666	you	-0.1569
-2.9645	your	-0.0769
-1.9038	zero	-0.3796
-3.2721	~	-1.0548

\2-grams:
-0.0400	him	~	0.3500
-1.3622	that	's	-0.5479
-1.2705	there	's	-0.5479
-1.2642	*	*	-0.5479
-0.9943	all	*	-0.6810
-0.7390	nine	*	-0.6337
-0.8851	seven	*	-0.6337
-0.8851	so	*	-0.6810
-1.4018	one	+	0.3500
-0.7390	b	/	-0.5479
-0.8182	c	/	-0.5479
-0.8851	seven	/	-0.5479
-0.8851	_a	</s>	1.2947
-0.0400	abnormal	</s>	1.2947
-0.0400	ago	</s>	1.2947
-0.9943	all	</s>	1.2947
-0.3411	arrangement	</s>	1.2947
-1.0814	arthur	</s>	1.2947
-0.7390	b	</s>	1.2947
-0.9632	bigbird	</s>	1.9571
-1.1540	cent	</s>	1.2947
-0.2117	chotimongkol	</s>	1.2218
-1.3311	components	</s>	1.9571
-1.0881	computation	</s>	1.9571
-0.5172	daines	</s>	1.2947
-0.6421	data	</s>	1.2947
-0.3411	dave	</s>	1.2947
-0.0400	description	</s>	1.2947
-0.3411	different	</s>	1.2947
-0.0400	evandro	</s>	1.2947
-0.4749	experiment	</s>	1.2218
-1.1850	experiments	</s>	1.9571
-0.6421	floor	</s>	1.2947
-0.9632	floored	</s>	1.9571
-0.8182	flooring	</s>	1.2947
-0.4041	four	</s>	1.7863
-0.5172	go	</s>	1.2947
-0.7871	inaccurate	</s>	1.9571
-0.5172	incidence	</s>	1.2947
-1.5172	is	</s>	1.2947
-0.0400	jump	</s>	1.2947
-0.0400	level	</s>	1.2947
-1.4018	m	</s>	1.2947
-0.9943	mean	</s>	1.2947
-1.4018	one	</s>	1.2947
-0.7871	place	</s>	1.9571
-1.4403	point	</s>	1.9571
-0.0400	procedure	</s>	1.2947
-0.5172	process	</s>	1.2947
-0.2117	re	</s>	1.2218
-0.0400	regards	</s>	1.2947
-1.1850	result	</s>	1.9571
-0.3411	results	</s>	1.2947
-0.0400	right	</s>	1.2947
-1.3311	say	</s>	1.9571
-0.7871	scary	</s>	1.9571
-0.5172	scylla	</s>	1.2947
-0.3411	slow	</s>	1.2947
-0.9943	something	</s>	1.2947
-0.9632	sphinxtrain	</s>	1.9571
-0.0400	task	</s>	1.2947
-0.7871	testing	</s>	1.9571
-1.2642	them	</s>	1.9571
-1.1850	training	</s>	1.9571
-1.0881	use	</s>	1.9571
-0.9632	valid	</s>	1.9571
-0.3411	value	</s>	1.2947
-1.1850	vectors	</s>	1.9571
-0.0400	warnings	</s>	1.2947
-0.3411	way	</s>	1.2947
-0.9632	well	</s>	1.9571
-0.5172	wer	</s>	1.2947
-1.2441	why	</s>	1.2947
-0.7871	wrote	</s>	1.9571
-0.9207	zero	</s>	1.7863
-0.0044	</s>	<s>	0.1352
-0.8851	four	=	-0.4409
-0.3411	sixteen	=	-0.4409
-0.3274	cont	_	-0.7516
-0.3203	decode	_	-0.6560
-0.6864	g	_a	-0.5205
-0.0400	see	_a	-0.6447
-1.4403	as	a	-0.0367
-1.3891	at	a	-0.0367
-1.2705	be	a	-0.6877
-0.0400	do	a	-0.6877
-0.9431	for	a	-0.6991
-0.5172	give	a	-0.6877
-0.0400	had	a	-0.6877
-0.5172	having	a	-0.6991
-0.3411	however	a	-0.6877
-2.1673	in	a	-0.6694
-0.8878	is	a	-0.6432
-0.8851	make	a	-0.6877
-1.0881	such	a	-0.0367
-1.3622	that	a	-0.6991
-1.6902	why	a	-0.0367
-0.0361	am	able	1.3265
-0.7390	was	able	0.8349
-0.7390	was	abnormal	0.3500
-0.5475	cent	absolute	-0.3645
-0.5172	cant	actually	-0.4409
-0.7390	implementation	actually	-0.4409
-1.7213	in	addition	0.3500
-0.3411	slow	after	0.3500
-0.0400	years	ago	0.3500
-0.9207	i	agree	0.0571
-1.6322	have	agreed	0.0345
-0.8182	*	all	-0.6589
-2.0444	<s>	all	-0.6589
-0.0400	after	all	-0.6589
-0.3411	assume	all	-0.6589
-0.9431	for	all	-0.6589
-0.0400	hi	all	-0.6589
-1.7213	in	all	-0.6589
-1.4550	of	all	-0.6589
-1.6421	to	all	-0.6589
-0.5172	sphinxtrain	along	0.3500
-1.5024	will	already	0.3500
-1.4379	<s>	also	-0.0737
-1.7648	are	also	-0.0309
-1.8478	i	also	-0.0309
-1.9632	is	also	-0.0309
-0.9207	i	am	0.8842
-0.5172	's	an	-0.4409
-1.7213	in	an	-0.4409
-0.4749	chan	ananlada	-0.3645
-0.8182	c	and	-0.6860
-0.8182	change	and	-0.6860
-0.8851	components	and	-0.6860
-0.3617	decode	and	-0.7192
-1.1850	experiments	and	-0.0361
-0.9943	mean	and	-0.6860
-0.7871	points	and	-0.0361
-0.0400	problem	and	-0.6860
-0.6421	such	and	-0.6860
-0.7390	trained	and	-0.6860
-0.0400	causing	another	0.3500
-2.0444	<s>	any	-0.5479
-0.7390	or	any	-0.5479
-0.9431	with	any	-0.5479
-0.2304	_	anytopo	-0.2065
-2.4904	<s>	apparently	0.0072
-0.5172	scylla	apparently	-0.5479
-0.9943	all	are	-0.6839
-0.8851	components	are	-0.6839
-0.8182	flooring	are	-0.6839
-1.4403	mean	are	-0.0354
-0.7871	sample	are	-0.0354
-0.7128	there	are	-0.2692
-0.9632	they	are	-0.0354
-1.5024	we	are	-0.6839
-1.0881	which	are	-0.0354
-0.7871	latter	arrangement	0.3500
-1.4150	<s>	arthur	1.8024
-1.8478	m	arthur	0.9985
-0.2117	mosur	arthur	0.2632
-1.5633	<s>	as	0.0083
-1.5652	also	as	0.1162
-1.0881	same	as	-0.0268
-1.3891	vector	as	-0.0268
-1.6421	to	ask	0.3500
-0.3411	actually	assigns	0.3500
-0.0400	still	assume	-0.4409
-1.5024	will	assume	-0.4409
-2.0444	<s>	at	-0.5215
-0.3411	complication	at	-0.6527
-0.7871	detail	at	-0.0248
-1.6621	five	at	-0.0248
-0.7871	look	at	0.1409
-1.2642	on	aug	0.0345
-0.7631	g	b	-0.3612
-0.7871	k	b	-0.5082
-0.7390	could	be	-0.6813
-1.1850	just	be	0.0626
-0.7871	must	be	0.0626
-0.9431	should	be	-0.6813
-0.3411	t	be	-0.6969
-1.0379	to	be	-0.0003
-1.0214	will	be	-0.5688
-0.0400	wont	be	-0.6969
-0.7390	b	before	-0.4409
-0.3411	removed	before	-0.4409
-1.5652	also	believe	-0.0059
-1.9484	will	believe	-0.0059
-1.4018	a	better	-0.6279
-0.5172	give	better	-0.6279
-1.8478	a	big	-0.0186
-0.4520	calo	big	0.0072
-0.8182	on	bigbird	-0.5479
-2.0881	to	bigbird	0.0072
-2.4904	<s>	both	0.0345
-0.5172	correct	but	-0.5479
-1.8478	zero	but	0.0072
-0.0400	printed	by	-0.6337
-0.1096	trained	by	0.0072
-1.3188	variance	by	-0.6337
-0.7390	gauden	c	-0.6337
-0.7871	n	c	-0.5479
-0.0400	senones	c	-0.6337
-1.2642	u	c	-0.5479
-2.4904	<s>	calo	0.1463
-1.0160	the	calo	0.0402
-2.1673	in	calobig	0.0345
-1.0814	anytopo	can	-0.6178
-1.1850	treatment	can	-0.0136
-1.9484	we	can	-0.5082
-0.7871	probably	cant	0.0072
-1.5024	we	cant	-0.5479
-1.4018	i	carry	0.3500
-1.3891	some	case	0.0072
-1.9591	the	case	-0.5479
-1.3891	some	cases	0.0345
-2.4051	the	cause	0.3500
-0.0400	effect	causing	0.3500
-0.0348	per	cent	-0.1132
-1.8478	a	certain	0.0345
-0.5172	any	certainty	0.3500
-0.0414	arthur	chan	-0.1361
-0.7871	perhaps	change	0.3671
-0.0400	small	change	-0.6337
-2.0881	to	change	0.3671
-0.7390	was	changed	0.3500
-0.4749	calo	cheating	-0.0378
-0.9632	our	cheating	0.6975
-1.3297	the	cheating	0.7749
-0.7390	not	checked	0.3500
-0.2117	ananlada	chotimongkol	-0.3645
-0.3411	very	close	0.3500
-1.4018	a	closer	0.3500
-2.4051	the	code	0.0072
-0.0400	welcomed	code	-0.5479
-2.4051	the	complication	0.3500
-0.0400	each	component	-0.5479
-1.1192	gaussian	component	-0.5479
-0.8851	seven	component	-0.5479
-0.7871	fewer	components	-0.0221
-1.1192	gaussian	components	-0.6447
-0.9431	more	components	-0.6447
-0.7390	nine	components	-0.6845
-1.4550	of	components	-0.6447
-1.4018	one	components	-0.6845
-0.7724	m	computation	0.0766
-1.9484	will	conclude	0.0345
-1.3622	that	confirms	0.3500
-0.9431	for	cont	-0.4291
-1.9010	of	cont	0.2333
-0.3411	parameters	cont	-0.4291
-0.9431	reason	cont	-0.4291
-1.9591	the	cont	-0.4291
-1.3188	are	correct	-0.5479
-0.0400	mathematically	correct	-0.5479
-0.9431	more	correct	-0.5479
-1.5652	gaussian	could	-0.0136
-1.8478	i	could	-0.0136
-0.9431	vector	could	-0.6178
-1.9591	the	current	0.3500
-2.0444	<s>	currently	0.3500
-0.0361	huggins	daines	0.0571
-1.3891	more	data	-0.0059
-0.7390	training	data	-0.5929
-0.0400	transferring	data	-0.5929
-2.0444	<s>	dave	-0.4409
-0.0400	recently	dave	-0.4409
-2.4904	<s>	david	1.0550
-1.0814	chan	david	0.3926
-1.3188	are	dealing	0.3500
-1.6421	to	decide	0.3500
-0.0400	hard	decision	0.3500
-0.3222	and	decode	-0.7175
-2.1673	in	decode	0.2049
-1.5172	is	decode	-0.4575
-0.8851	make	decode	-0.6877
-1.3622	that	decode	-0.4575
-0.3411	used	decode	-0.6877
-0.5172	using	decode	-0.4227
-0.6377	why	decode	-0.5304
-1.7213	in	defunct	-0.4409
-1.6421	to	defunct	-0.4409
-1.4018	a	description	0.3500
-2.4904	<s>	despite	0.0345
-1.3891	more	detail	0.0345
-0.2117	absolute	difference	-0.5020
-1.2642	big	difference	0.2333
-0.0400	subtly	different	-0.4409
-1.1862	two	different	-0.4409
-0.3411	very	differently	0.3500
-0.7871	your	directory	0.0345
-0.9943	has	discovered	0.3500
-1.1192	gaussian	distributions	0.3500
-1.6421	to	do	0.3500
-1.4550	of	doing	0.3500
-0.8182	c	e	0.3500
-1.5172	is	each	0.3500
-1.7213	in	effect	0.3500
-0.5172	component	effectively	-0.5929
-1.1192	gaussian	effectively	-0.5929
-1.9484	will	effectively	-0.0059
-1.2161	five	eight	-0.5929
-0.0361	office	eight	0.2951
-1.6000	hundred	eighty	0.3500
-1.4550	of	eleven	-0.6279
-0.0400	~	eleven	-0.6279
-0.3411	exactly	equal	-0.4409
-1.3622	that	equal	-0.4409
-2.0444	<s>	evandro	0.3500
-1.5172	is	even	0.3926
-1.2642	them	even	1.0550
-1.2642	flooring	everything	0.0345
-1.5172	is	exactly	-0.4409
-0.5172	perform	exactly	-0.4409
-0.0400	closer	examination	0.3500
-0.0872	cheating	experiment	-0.2822
-1.4018	one	experiment	-0.6677
-1.5274	cheating	experiments	-0.0136
-0.0400	my	experiments	-0.6178
-1.1850	other	experiments	-0.0136
-2.4051	the	fact	0.0345
-1.6322	have	fewer	0.0345
-0.3411	=	fifteen	0.3500
-0.0400	means	fifty	0.3500
-2.0881	to	figure	0.0345
-2.0444	<s>	file	0.3500
-0.7390	just	fill	0.3500
-2.0444	<s>	first	-0.6178
-2.4051	the	first	-0.0136
-0.9632	thirty	first	-0.0136
-0.0400	+	five	-0.5976
-0.0400	another	five	-0.5976
-1.3188	are	five	-0.5976
-0.5172	having	five	-0.5976
-0.9943	point	five	-0.6780
-0.9632	situation	five	0.0648
-0.6096	thousand	five	-0.3769
-1.1862	two	five	-0.6780
-0.9431	with	floating	0.3500
-1.3891	should	floor	-0.0059
-1.9591	the	floor	-0.5929
-1.3188	variance	floor	-0.5929
-1.2705	be	floored	-0.5479
-1.1850	were	floored	0.0072
-0.3411	before	flooring	-0.6337
-1.9591	the	flooring	-0.6337
-1.7648	variance	flooring	-0.5479
-0.9632	while	flooring	-0.0186
-0.7390	result	following	0.3500
-2.0444	<s>	for	-0.6527
-0.9632	likelihood	for	-0.5929
-0.9632	observation	for	-0.5929
-0.3411	parameters	for	-0.6527
-0.7871	record	for	-0.0248
-1.4018	one	forty	0.3500
-0.3411	eighty	four	-0.6447
-0.6730	hundred	four	0.0041
-0.9943	point	four	-0.6447
-1.2161	thousand	four	-0.6447
-0.5172	twenty	four	-0.6447
-1.3891	for	further	-0.0059
-0.7871	speculate	further	-0.0059
-0.3411	different	g	-0.5916
-0.8440	m	g	-0.7450
-0.2580	six	g	-0.1314
-1.3549	the	g	-0.5853
-1.7213	in	gauden	-0.6178
-1.5172	is	gauden	-0.6178
-1.9010	of	gauden	-0.0136
-0.3411	whereas	gauden	-0.6178
-1.8478	a	gaussian	-0.0309
-0.3411	defunct	gaussian	-0.6710
-0.0400	healthy	gaussian	-0.6710
-0.6421	no	gaussian	-0.6710
-0.9740	of	gaussian	-0.6195
-0.3411	sixteen	gaussian	-0.6710
-2.4051	the	gaussian	-0.6337
-0.3411	whole	gaussian	-0.6933
-0.8851	seven	gaussians	-0.6178
-0.1096	those	gaussians	0.0179
-1.6421	to	get	0.3500
-0.0400	potentially	give	-0.5479
-1.9484	will	give	-0.2986
-1.8478	a	given	0.3500
-1.6421	to	go	-0.5479
-1.9484	will	go	0.0072
-0.5172	's	going	0.3500
-0.3411	he	got	0.3500
-1.4018	i	guess	0.3500
-2.4904	<s>	h	0.0345
-1.4018	i	had	0.3500
-1.9484	will	happen	0.0345
-1.1850	just	happens	0.0072
-0.8182	what	happens	-0.5479
-1.4018	a	hard	0.3500
-0.4749	anytopo	has	-0.5494
-0.5172	bigbird	has	-0.6589
-0.3411	dave	has	-0.6589
-0.5172	scylla	has	-0.6589
-1.1850	could	have	-0.0326
-1.4018	i	have	-0.6760
-1.1850	might	have	-0.0326
-1.2642	them	have	-0.0326
-0.5172	they	have	-0.6760
-1.9484	we	have	-0.0326
-1.9484	will	have	-0.0326
-1.1850	you	have	-0.0326
-1.5024	we	haven	0.3500
-1.5024	we	havent	0.3500
-0.5172	correct	having	-0.5479
-0.7390	experiments	having	-0.5479
-1.3622	that	having	-0.5479
-0.8851	if	he	-0.4409
-0.5172	wer	he	-0.4409
-0.7390	those	healthy	0.3500
-1.1850	can	help	0.0345
-0.9431	at	here	0.3926
-0.3411	complication	here	0.3926
-0.0400	thing	here	0.3926
-2.0444	<s>	hi	0.3500
-0.5172	give	him	0.3500
-2.4904	<s>	however	0.3500
-0.0361	david	huggins	0.8842
-0.5867	five	hundred	-0.1766
-0.8851	four	hundred	-0.6942
-0.8440	one	hundred	-0.7182
-1.1862	two	hundred	-0.6737
-1.0501	<s>	i	-0.0117
-0.9943	all	i	-0.6877
-1.3622	and	i	-0.6877
-0.7871	fact	i	0.0126
-1.8478	m	i	0.0126
-0.7871	objection	i	0.0329
-0.9943	point	i	-0.6294
-0.8182	s	i	-0.6877
-0.8851	say	i	-0.6877
-0.7631	why	i	-0.1501
-0.5172	any	idea	0.3500
-2.4904	<s>	if	-0.6207
-0.8182	c	if	-0.6845
-0.5172	floored	if	-0.6447
-0.0400	guess	if	-0.4875
-1.0881	sense	if	0.1749
-0.5172	our	implementation	-0.6178
-1.3297	the	implementation	0.0179
-2.0444	<s>	in	-0.6969
-0.7871	agreed	in	0.2234
-0.9632	apparently	in	-0.0399
-0.0400	checked	in	-0.6969
-0.8851	components	in	-0.4390
-0.3274	difference	in	-0.3152
-0.0400	differently	in	-0.7023
-0.0400	distributions	in	-0.4390
-0.0400	fill	in	-0.6969
-0.7871	happen	in	-0.0399
-0.9632	happens	in	0.2234
-0.7871	help	in	0.2234
-0.3411	however	in	-0.6969
-1.1850	implementation	in	0.2234
-0.9943	it	in	-0.7023
-0.3411	normal	in	-0.4390
-0.3411	observations	in	-0.4390
-0.5172	perform	in	-0.4390
-0.7871	possibly	in	-0.0062
-0.7390	result	in	-0.6969
-0.3411	results	in	-0.6969
-0.7871	safeguard	in	0.2234
-1.0881	sense	in	-0.0062
-0.0400	set	in	-0.4390
-1.3622	that	in	-0.6969
-1.6621	this	in	-0.0399
-0.5172	valid	in	-0.6969
-0.7390	vectors	in	-0.7023
-1.2441	why	in	-0.7023
-0.9632	yet	in	-0.0399
-1.4018	zero	in	-0.4390
-1.7648	are	inaccurate	0.0345
-0.7351	this	incidence	0.0571
-1.5172	is	indeed	0.3500
-0.3411	an	infinite	0.3500
-0.5172	wer	instead	0.3500
-0.8182	on	investigating	0.3500
-2.0444	<s>	is	-0.7005
-0.3411	cause	is	-0.6919
-0.5172	code	is	-0.7005
-1.1192	gaussian	is	-0.6451
-0.0400	got	is	-0.6919
-0.5172	happens	is	-0.6919
-0.0361	here	is	-0.1558
-1.4403	it	is	-0.6780
-0.5172	observation	is	-0.6919
-1.8478	one	is	-0.6870
-0.8182	s	is	-0.6634
-0.7871	second	is	-0.0010
-0.3411	system	is	-0.7005
-1.3622	that	is	-0.6919
-0.6411	there	is	-0.1856
-0.5867	this	is	-0.1771
-0.3411	value	is	-0.6919
-1.3891	vector	is	-0.6296
-0.8182	s	isnt	0.3500
-1.5633	<s>	it	0.0317
-0.5172	but	it	-0.6589
-1.3622	that	it	-0.6892
-0.0400	understand	it	-0.6589
-1.3188	variance	it	-0.4599
-1.2441	why	it	-0.6589
-0.0400	yes	it	-0.6892
-0.8851	if	its	-0.5479
-0.8851	so	its	-0.5479
-0.3411	then	its	-0.5479
-0.6421	me	jump	0.3500
-0.9943	it	just	-0.6178
-1.1850	might	just	-0.0136
-1.6621	this	just	-0.0136
-0.8851	four	k	-0.6279
-1.4018	zero	k	-0.6279
-0.7390	might	know	-0.5479
-1.9484	we	know	0.0072
-2.4051	the	latter	0.0345
-0.6421	use	less	0.3500
-0.0400	performance	level	0.3500
-0.0400	infinite	likelihood	-0.6552
-1.8478	zero	likelihood	-0.4740
-1.9591	the	lines	0.3500
-0.3411	normal	logic	0.3500
-2.0881	to	look	0.0345
-1.4018	a	lot	0.3500
-0.7128	_	m	-0.7780
-0.6377	g	m	-0.7110
-0.7871	h	m	0.0242
-0.8440	m	m	-0.4327
-0.9632	p	m	-0.0367
-1.1850	other	mail	0.0345
-0.0400	already	make	-0.6447
-1.3622	and	make	-0.6447
-0.7871	both	make	-0.0221
-0.6421	effectively	make	-0.6447
-2.0881	to	make	-0.0221
-1.8082	that	many	0.0072
-0.5172	too	many	-0.5479
-0.7390	were	mathematically	0.3500
-0.5172	well	maybe	0.3500
-0.8851	make	me	-0.5929
-1.1611	to	me	-0.0132
-1.0881	effectively	mean	-0.0268
-1.3549	the	mean	-0.1375
-1.9484	will	mean	-0.0268
-1.3622	that	means	0.3500
-0.9632	incidence	might	-0.0136
-0.9632	ravi	might	-0.0136
-0.7390	you	might	-0.6178
-0.6421	such	models	0.3500
-0.8182	s	modem	0.3500
-2.1673	in	more	-0.0248
-1.5172	is	more	-0.6527
-1.3311	make	more	-0.0248
-1.0881	much	more	-0.0248
-1.4550	of	more	-0.6527
-0.8182	c	most	-0.6279
-1.7213	in	most	-0.6279
-0.2117	ravishankar	mosur	-0.3645
-1.2642	by	much	-0.0059
-0.9632	too	much	-0.0059
-1.7165	there	must	0.0345
-1.4550	of	my	0.3500
-1.4018	i	n	-0.6279
-0.0400	y	n	-0.6279
-1.0214	we	need	0.3600
-1.9484	will	need	0.5309
-0.0400	forty	nine	-0.6178
-0.5172	thirty	nine	-0.6178
-1.1611	to	nine	0.1351
-1.1850	six	nineteen	0.0345
-0.0400	current	no	-0.5929
-1.0361	is	no	-0.0132
-1.7648	are	non	1.4973
-1.2705	be	non	0.8349
-1.9591	the	non	0.8349
-1.6322	have	none	0.0345
-0.9943	something	normal	-0.4409
-1.9591	the	normal	-0.4409
-1.1850	could	not	-0.0136
-1.9632	is	not	-0.5082
-0.7390	or	not	-0.6178
-1.1192	also	notice	0.3500
-0.0400	less	number	0.3500
-0.9943	point	numbers	0.3500
-1.0881	no	objection	0.0345
-0.3411	given	observation	-0.5479
-0.6421	no	observation	-0.6552
-0.0400	single	observation	-0.6552
-0.9943	all	observations	-0.4409
-0.9431	for	observations	-0.4409
-0.0400	havent	observed	-0.6279
-0.3411	t	observed	-0.6279
-2.0444	<s>	of	-0.6898
-0.5172	case	of	-0.6898
-0.3411	cause	of	-0.6393
-1.6000	cent	of	0.0059
-0.9632	code	of	-0.0374
-0.5172	component	of	-0.6393
-0.7390	first	of	-0.6898
-1.1850	implementation	of	-0.0374
-0.0400	instead	of	-0.6898
-0.0400	lines	of	-0.6393
-0.0400	lot	of	-0.6565
-0.7871	most	of	-0.6212
-0.0400	number	of	-0.6898
-0.7871	plenty	of	0.0274
-0.0400	rest	of	-0.6393
-1.3311	seven	of	0.0274
-1.1850	treatment	of	-0.0374
-0.6421	use	of	-0.6898
-0.0400	ways	of	-0.6898
-0.0361	phone	office	0.8842
-1.4018	one	oh	0.3500
-2.4904	<s>	on	-0.0186
-0.7871	directory	on	-0.6049
-0.0400	running	on	-0.6810
-0.3411	time	on	-0.6337
-2.0444	<s>	one	-0.6991
-1.3622	and	one	-0.6991
-0.0400	decision	one	-0.6877
-0.6421	eight	one	-0.6877
-0.3411	eighty	one	-0.6877
-0.0400	fifty	one	-0.6877
-0.0400	get	one	-0.6991
-1.5172	is	one	-0.6991
-0.0400	maybe	one	-0.6877
-1.0881	only	one	-0.0367
-0.5172	out	one	-0.6877
-1.4403	point	one	-0.6694
-1.9591	the	one	-0.6877
-0.6584	thousand	one	-0.7780
-0.5172	twenty	one	-0.6877
-1.3188	are	only	-0.5929
-1.2642	by	only	-0.0059
-1.4018	i	only	-0.5929
-1.0814	experiment	or	-0.6178
-0.6421	same	or	-0.6178
-1.7648	variance	or	-0.0136
-0.9431	vector	or	-0.6178
-0.5172	any	other	-0.6178
-2.1673	in	other	-0.0136
-2.4051	the	other	-0.0136
-0.9943	all	others	0.3500
-0.0400	e	our	-0.5479
-2.1673	in	our	0.0072
-0.0400	carry	out	-0.5479
-0.7871	figure	out	0.0072
-0.7390	b	p	-0.5479
-0.7871	nineteen	p	0.0072
-0.3411	given	parameter	0.3500
-0.5172	many	parameters	-0.4409
-1.3188	variance	parameters	-0.4409
-1.4018	a	particular	0.3500
-0.7871	eleven	per	1.0711
-0.0400	fifteen	per	0.4087
-1.4018	one	per	0.4087
-0.2117	ten	per	0.3358
-0.7051	two	per	0.9003
-0.7390	can	perform	-0.5479
-1.6421	to	perform	-0.5479
-1.1862	two	perform	-0.5479
-1.1540	cent	performance	0.3500
-1.9484	will	perhaps	0.0345
-1.5633	<s>	phone	0.8842
-1.1850	first	place	0.0345
-1.9591	the	plan	0.3500
-1.7648	are	plenty	0.0345
-0.7871	certain	point	-0.0268
-0.0400	floating	point	-0.6589
-1.8478	one	point	-0.6410
-1.2161	this	point	-0.6589
-0.0400	three	point	-0.6589
-1.1862	two	point	-0.6589
-1.4018	zero	point	-0.6892
-1.0881	data	points	0.0345
-2.4904	<s>	possibly	0.0345
-1.3622	and	potentially	0.3500
-0.0400	warning	printed	0.3500
-1.9484	we	probably	0.0345
-1.9591	the	problem	0.3500
-0.8182	flooring	procedure	0.3500
-0.8182	c	process	-0.5479
-0.8182	flooring	process	-0.5479
-0.7390	removal	process	-0.5479
-0.3411	an	r	0.3500
-1.0881	believe	ravi	0.0072
-0.9431	with	ravi	-0.5479
-2.0444	<s>	ravishankar	-0.2917
-1.5274	chan	ravishankar	0.3707
-0.9632	daines	ravishankar	0.3707
-1.4402	<s>	re	-0.2854
-0.7871	resent	re	0.3707
-1.0160	the	reason	-1.2844
-1.3891	some	reasons	0.0345
-0.5172	know	recently	0.3500
-1.3891	should	record	0.0345
-2.0444	<s>	regards	0.3500
-0.9632	case	removal	0.6087
-1.1192	gaussian	removal	-0.6178
-0.7871	without	removal	0.6087
-1.3891	should	remove	0.0072
-0.6421	which	remove	-0.5479
-1.2705	be	removed	-0.4409
-0.7390	were	removed	-0.4409
-2.4904	<s>	resent	0.0345
-1.9591	the	rest	0.3500
-1.8478	a	result	-0.5082
-0.7871	better	result	-0.0136
-0.9431	should	result	-0.6178
-1.3622	and	results	-0.4409
-0.6421	same	results	-0.4409
-0.0400	others	right	0.3500
-1.6421	to	round	0.3500
-0.5172	process	running	0.3500
-0.5172	/	s	-0.6337
-2.0444	<s>	s	-0.6337
-0.5172	p	s	-0.6337
-0.0400	r	s	-0.6337
-0.8182	s	s	-0.6337
-1.3622	that	s	-0.6337
-2.0881	to	safeguard	0.0345
-1.3297	the	same	0.0766
-1.8478	one	sample	0.0345
-0.3411	actually	say	-0.6447
-0.9632	cant	say	-0.0221
-0.6421	effectively	say	-0.6447
-1.5024	will	say	-0.6447
-1.1850	you	say	-0.0221
-1.4403	something	scary	0.0345
-1.2642	on	scylla	-0.2986
-0.0400	upgrade	scylla	-0.5479
-2.4904	<s>	second	0.0345
-1.5024	will	see	0.3500
-1.1850	gauden	seems	0.3671
-0.3649	it	seems	0.3309
-1.2161	thousand	senone	0.3500
-0.5172	/	senones	0.3500
-1.3311	make	sense	-0.0059
-1.3891	more	sense	-0.0059
-0.0400	test	set	0.3500
-0.4365	seventy	seven	0.1217
-0.9943	has	seventy	-0.6892
-0.5962	hundred	seventy	-0.6472
-1.4018	one	seventy	-0.5074
-0.3411	whole	seventy	-0.6892
-1.2705	there	should	-0.6527
-1.3188	variance	should	-0.6527
-0.8960	we	should	0.0138
-0.0400	examination	shows	0.3500
-1.1850	whether	similar	0.0345
-1.1192	also	since	0.3500
-1.4018	a	single	0.3500
-0.7390	other	situation	-0.5479
-1.6621	this	situation	0.0072
-1.3891	at	six	-0.0136
-0.9943	point	six	-0.3565
-1.4403	seventy	six	0.3059
-0.8182	*	sixteen	-0.4409
-0.9431	with	sixteen	-0.4409
-0.0400	isnt	slow	-0.4409
-0.8851	so	slow	-0.4409
-1.4018	a	small	0.3500
-1.5172	is	smaller	0.3500
-1.4150	<s>	so	0.0287
-0.0400	going	so	-0.6447
-0.5172	process	so	-0.6447
-0.5172	yet	so	-0.6447
-1.6322	have	some	-0.0248
-1.0919	in	some	-0.0059
-0.0400	modem	some	-0.6527
-0.0400	spent	some	-0.6527
-1.5652	also	something	-0.0268
-0.6663	be	something	-0.4536
-0.8182	by	something	-0.6589
-1.5172	is	something	-0.6589
-0.7390	not	something	-0.6589
-0.9943	something	specific	0.3500
-1.1850	not	speculate	0.0345
-1.1862	have	spent	0.3500
-0.8182	by	sphinxtrain	-0.5479
-1.9010	of	sphinxtrain	0.0072
-1.5024	will	still	0.3500
-1.9591	the	strange	0.3500
-1.3188	are	subtly	0.3500
-1.3622	and	such	-0.5929
-0.9431	for	such	-0.5929
-0.7871	observed	such	-0.0059
-1.4018	a	system	-0.4409
-1.0814	experiment	system	-0.4409
-0.0400	haven	t	-0.4409
-0.0400	won	t	-0.4409
-1.5024	will	talk	0.3500
-1.0814	calo	task	0.3500
-0.3878	has	ten	-0.3645
-0.0400	particular	test	0.3500
-0.7871	calobig	testing	0.0345
-0.0400	smaller	than	0.3500
-1.5633	<s>	that	-0.6447
-1.7165	be	that	-0.0361
-0.0400	certainty	that	-0.6860
-0.7871	conclude	that	-0.0361
-0.0400	discovered	that	-0.6860
-1.0814	experiment	that	-0.6860
-0.9632	know	that	-0.0361
-0.6421	me	that	-0.6860
-1.4403	mean	that	-0.0361
-0.0400	notice	that	-0.6860
-0.3411	observations	that	-0.6860
-0.8182	seems	that	-0.6860
-0.0400	shows	that	-0.6860
-0.3411	system	that	-0.6860
-1.4018	zero	that	-0.6860
-1.1012	<s>	the	-0.5489
-0.9943	all	the	-0.7036
-0.0400	along	the	-0.7005
-0.3411	assume	the	-0.7005
-1.7165	be	the	-0.0221
-0.9632	but	the	-0.0233
-0.2140	change	the	-0.6782
-1.4018	decode	the	-0.7005
-0.7871	despite	the	-0.0412
-0.3411	equal	the	-0.6857
-0.3411	exactly	the	-0.6845
-0.0400	following	the	-0.7005
-0.9431	for	the	-0.7005
-1.3311	if	the	-0.6651
-0.3388	in	the	-0.2230
-0.0400	indeed	the	-0.6613
-1.9632	is	the	-0.6956
-1.0881	me	the	-0.0412
-0.8508	of	the	-0.6807
-0.6421	only	the	-0.7036
-0.9632	out	the	0.0011
-0.5172	remove	the	-0.7036
-0.3411	removed	the	-0.7005
-0.0400	than	the	-0.6857
-0.6421	though	the	-0.6857
-0.7871	through	the	-0.6806
-0.3411	time	the	-0.7005
-1.0127	to	the	-0.6353
-0.3411	transfer	the	-0.7036
-0.3411	used	the	-0.7036
-0.9431	vector	the	-0.7036
-0.8182	what	the	-0.7036
-0.5172	while	the	-0.7005
-1.6902	why	the	-0.6839
-1.4018	zero	the	-0.6857
-1.3622	that	their	0.3500
-1.0881	floor	them	-0.0186
-0.8256	of	them	0.0072
-1.3188	are	then	-0.4409
-0.0400	parameter	then	-0.4409
-1.5633	<s>	there	-0.0507
-0.5172	agree	there	-0.6813
-1.8082	and	there	-0.6560
-0.4041	if	there	-0.1010
-0.0400	logic	there	-0.6117
-0.7390	result	there	-0.6117
-1.8082	that	there	-0.0345
-0.6421	though	there	-0.5926
-1.1850	training	there	0.0506
-0.0400	where	there	-0.6117
-1.8082	that	they	0.0072
-0.7390	whether	they	-0.5479
-0.0400	strange	thing	0.3500
-1.1862	two	things	0.3500
-0.8182	*	thirty	-0.5479
-0.7871	aug	thirty	0.0072
-2.4904	<s>	this	0.0873
-0.4621	at	this	-0.1367
-0.0400	confirms	this	-0.5751
-1.6322	have	this	-0.0333
-2.1673	in	this	-0.5833
-0.7871	mail	this	-0.0333
-0.4041	so	this	0.0800
-1.0881	believe	those	0.6087
-0.9632	remove	those	0.6087
-1.6421	to	those	-0.6178
-0.0361	even	though	-0.0132
-0.7390	gauden	though	-0.5929
-0.6584	five	thousand	-0.7374
-0.8851	four	thousand	-0.6780
-0.2580	nine	thousand	-0.0913
-0.5568	two	thousand	-0.1354
-0.9943	has	three	0.3500
-0.9632	go	through	0.0345
-0.9431	some	time	-0.4409
-1.9591	the	time	-0.4409
-0.0127	able	to	-0.2344
-0.0400	addition	to	-0.6953
-0.0400	changed	to	-0.6953
-0.0400	close	to	-0.6609
-0.5172	correct	to	-0.6953
-0.6421	data	to	-0.7017
-1.4018	decode	to	-0.6953
-0.1611	eight	to	-0.1826
-0.3411	equal	to	-0.6609
-0.7390	gaussians	to	-0.6635
-0.5172	likelihood	to	-0.6953
-0.1348	need	to	-0.0995
-1.4018	one	to	-0.6953
-0.0400	plan	to	-0.6953
-0.7871	reasons	to	-0.0393
-0.2140	seems	to	-0.1023
-0.0400	specific	to	-0.6609
-0.0400	tomorrow	to	-0.6953
-0.3411	transfer	to	-0.7017
-0.7390	treatment	to	-0.6953
-1.2642	u	to	-0.0011
-1.7648	variance	to	-0.0011
-0.0400	variances	to	-0.6609
-0.3411	way	to	-0.6953
-0.5172	ravi	tomorrow	0.3500
-1.3188	are	too	-0.5479
-1.3311	say	too	0.0072
-1.7648	are	trained	0.6087
-0.0400	under	trained	-0.6178
-1.1850	was	trained	0.6087
-1.2642	big	training	-0.0136
-1.5274	experiment	training	-0.0136
-1.9591	the	training	-0.6178
-0.0400	file	transfer	-0.4409
-1.6421	to	transfer	-0.4409
-0.5172	apparently	transferring	0.3500
-0.5172	its	treatment	-0.6178
-0.7871	similar	treatment	-0.0136
-2.4051	the	treatment	-0.0136
-0.5172	/	twenty	-0.5479
-0.3411	=	twenty	-0.5479
-1.1540	hundred	twenty	-0.5479
-1.4018	a	two	-0.6760
-1.3188	are	two	-0.6760
-1.1850	first	two	0.0983
-1.2161	five	two	-0.6099
-1.4018	one	two	-0.6099
-0.6421	only	two	-0.6760
-1.9591	the	two	-0.6760
-0.3411	then	two	-0.6760
-1.6421	to	two	-0.6099
-0.5172	twenty	two	-0.5641
-1.1862	two	two	-0.6760
-0.9632	using	two	-0.5231
-0.2787	_a	u	0.0571
-1.1192	gaussian	under	0.3500
-0.7390	can	understand	0.3500
-0.0400	round	up	0.3500
-0.7390	can	upgrade	0.3500
-1.0881	further	use	-0.0059
-1.9591	the	use	-0.5929
-0.0400	would	use	-0.5929
-0.3411	he	used	-0.4409
-1.6421	to	used	-0.4409
-2.0444	<s>	using	-0.6552
-0.7390	were	using	-0.6552
-0.3411	whereas	using	-0.5479
-1.5652	also	valid	0.0072
-1.2705	be	valid	-0.5479
-0.6421	floor	value	-0.4409
-0.5172	its	value	-0.4409
-1.4403	as	variance	-0.0354
-0.3411	defunct	variance	-0.6839
-0.0400	doing	variance	-0.6978
-1.6322	have	variance	-0.0354
-0.5172	its	variance	-0.6839
-1.3549	the	variance	-0.1883
-0.8440	zero	variance	-0.8170
-1.4018	zero	variances	0.3500
-0.9943	mean	vector	-0.6527
-1.9591	the	vector	-0.6527
-0.8378	variance	vector	-0.1011
-0.9207	zero	vector	-0.1011
-0.8182	*	vectors	-0.6178
-0.6894	variance	vectors	-0.0142
-0.7390	or	very	-0.4409
-0.5172	perform	very	-0.4409
-1.4018	a	warning	0.3500
-0.0400	models	warnings	0.3500
-1.2642	big	was	-0.0136
-1.1192	gaussian	was	-0.6178
-1.4018	i	was	-0.6178
-0.8182	u	was	-0.6178
-1.2161	this	way	-0.4409
-0.6421	which	way	-0.4409
-0.0400	their	ways	0.3500
-1.5633	<s>	we	-0.1162
-1.5652	also	we	-0.6771
-1.8082	and	we	-0.0380
-0.3411	before	we	-0.7004
-0.7871	cases	we	-0.0380
-1.4403	mean	we	0.0095
-0.0400	numbers	we	-0.6914
-1.1850	or	we	0.0161
-0.8851	say	we	-0.6914
-0.0400	since	we	-0.6914
-0.8851	so	we	-0.6529
-0.3649	something	we	0.0663
-1.8082	that	we	0.0095
-0.0400	things	we	-0.6618
-1.0881	though	we	-0.0380
-1.1850	whether	we	0.0161
-1.3188	are	welcomed	0.3500
-2.0444	<s>	well	-0.5479
-1.4403	as	well	0.0072
-1.6000	cent	wer	-0.2986
-1.9591	the	wer	-0.5479
-1.0814	anytopo	were	-0.6178
-0.5172	component	were	-0.6178
-1.3311	components	were	-0.0136
-0.6421	computation	were	-0.6178
-2.0444	<s>	what	-0.6337
-1.0881	much	what	-0.0186
-1.4550	of	what	-0.6337
-1.3891	with	what	-0.0186
-0.5172	situation	where	0.3500
-2.0444	<s>	whereas	-0.4409
-1.1540	cent	whereas	-0.4409
-1.0881	further	whether	-0.0136
-1.9632	is	whether	-0.0136
-0.7390	vectors	whether	-0.6178
-0.0400	decide	which	-0.5929
-1.1850	gaussians	which	-0.0059
-0.8182	u	which	-0.5929
-0.7390	b	while	-0.5479
-0.7871	none	while	0.0072
-2.4051	the	whole	0.3500
-0.5172	's	why	-0.6230
-0.9943	all	why	-0.6963
-0.0400	ask	why	-0.6798
-0.0400	idea	why	-0.6798
-0.0400	investigating	why	-0.6798
-1.0361	is	why	-0.1560
-0.3854	reason	why	-0.3630
-1.0814	anytopo	will	-0.7004
-0.3411	arrangement	will	-0.7004
-0.6421	computation	will	-0.6914
-0.7390	gauden	will	-0.6914
-1.5652	gaussian	will	-0.6465
-0.7953	i	will	-0.1354
-0.7390	not	will	-0.7004
-0.1096	removal	will	-0.0330
-1.3188	variance	will	-0.6618
-0.9431	vector	will	-0.6618
-0.7390	vectors	will	-0.7004
-0.9447	we	will	-0.0651
-1.2642	what	will	-0.0380
-0.9632	agree	with	-0.0248
-0.0400	dealing	with	-0.6527
-1.1850	gaussians	with	-0.0248
-0.8851	say	with	-0.6527
-0.0400	senone	with	-0.6527
-0.0400	talk	with	-0.6527
-0.7871	everything	without	0.0345
-1.2705	there	won	0.3500
-1.2705	there	wont	0.3500
-1.5024	we	would	0.3500
-1.5274	chan	wrote	0.0345
-0.8182	s	y	0.3500
-0.9431	some	years	0.3500
-1.3622	that	yes	0.3500
-1.5274	anytopo	yet	0.0072
-1.7213	in	yet	-0.5479
-0.5133	as	you	-0.0505
-1.2642	what	you	-0.0136
-0.0400	currently	your	-0.6279
-1.9591	the	your	-0.6279
-1.8478	a	zero	-0.5726
-0.9943	all	zero	-0.6877
-1.3622	and	zero	-0.6991
-0.0400	assigns	zero	-0.6991
-0.7895	be	zero	-0.1115
-1.1862	have	zero	-0.6382
-0.5172	having	zero	-0.6877
-1.5172	is	zero	-0.6877
-0.9632	many	zero	0.0242
-0.0127	non	zero	-0.1017
-1.4550	of	zero	-0.6382
-0.0400	oh	zero	-0.6877
-0.8851	seven	zero	-0.6382
-0.0400	up	zero	-0.6877
-1.3891	with	zero	0.0126
-0.9943	it	's	-0.5479

\3-grams:
-0.0953	give	him	~
-0.5725	<s>	that	's
-0.5725	<s>	there	's
-0.0953	all	*	*
-0.0953	so	*	*
-0.0953	*	all	*
-0.0953	forty	nine	*
-0.9404	seventy	seven	*
-0.0953	process	so	*
-0.0953	eighty	one	+
-0.3964	k	b	/
-0.0953	gauden	c	/
-0.9404	seventy	seven	/
-0.0953	see	_a	</s>
-0.0953	was	abnormal	</s>
-0.0953	years	ago	</s>
-0.0953	hi	all	</s>
-0.3964	latter	arrangement	</s>
-0.6974	<s>	arthur	</s>
-0.5725	g	b	</s>
-1.0267	to	bigbird	</s>
-1.1745	per	cent	</s>
-0.0792	ananlada	chotimongkol	</s>
-1.0267	fewer	components	</s>
-1.3277	m	computation	</s>
-0.5725	huggins	daines	</s>
-0.0953	training	data	</s>
-0.0953	<s>	dave	</s>
-0.0953	a	description	</s>
-0.0953	subtly	different	</s>
-0.0953	<s>	evandro	</s>
-0.2553	cheating	experiment	</s>
-1.0267	other	experiments	</s>
-0.0953	variance	floor	</s>
-1.0267	were	floored	</s>
-0.0953	before	flooring	</s>
-0.4105	hundred	four	</s>
-0.0953	to	go	</s>
-1.0267	are	inaccurate	</s>
-0.5725	this	incidence	</s>
-0.0953	cause	is	</s>
-0.0953	me	jump	</s>
-0.0953	performance	level	</s>
-0.9404	m	m	</s>
-0.7943	the	mean	</s>
-0.0953	decision	one	</s>
-1.0267	first	place	</s>
-1.0267	certain	point	</s>
-0.0953	flooring	procedure	</s>
-0.0953	flooring	process	</s>
-0.0969	<s>	re	</s>
-1.0267	resent	re	</s>
-0.0953	<s>	regards	</s>
-1.0267	better	result	</s>
-0.0953	same	results	</s>
-0.0953	others	right	</s>
-1.0267	you	say	</s>
-1.0267	something	scary	</s>
-0.0953	upgrade	scylla	</s>
-0.0953	so	slow	</s>
-0.0953	by	something	</s>
-1.0267	of	sphinxtrain	</s>
-0.0953	calo	task	</s>
-1.0267	calobig	testing	</s>
-1.3277	of	them	</s>
-1.0267	big	training	</s>
-1.0267	further	use	</s>
-1.0267	also	valid	</s>
-0.0953	floor	value	</s>
-1.3277	variance	vectors	</s>
-0.0953	models	warnings	</s>
-0.0953	this	way	</s>
-1.0267	as	well	</s>
-0.3964	cent	wer	</s>
-0.0953	investigating	why	</s>
-1.0267	chan	wrote	</s>
-0.5725	be	zero	</s>
-1.3277	non	zero	</s>
-0.0953	_a	</s>	<s>
-0.0953	abnormal	</s>	<s>
-0.0953	ago	</s>	<s>
-0.0953	all	</s>	<s>
-0.0953	arrangement	</s>	<s>
-0.0953	arthur	</s>	<s>
-0.0953	b	</s>	<s>
-1.0267	bigbird	</s>	<s>
-0.0953	cent	</s>	<s>
-0.0792	chotimongkol	</s>	<s>
-1.0267	components	</s>	<s>
-1.0267	computation	</s>	<s>
-0.0953	daines	</s>	<s>
-0.0953	data	</s>	<s>
-0.0953	dave	</s>	<s>
-0.0953	description	</s>	<s>
-0.0953	different	</s>	<s>
-0.0953	evandro	</s>	<s>
-0.0792	experiment	</s>	<s>
-1.0267	experiments	</s>	<s>
-0.0953	floor	</s>	<s>
-1.0267	floored	</s>	<s>
-0.0953	flooring	</s>	<s>
-0.4105	four	</s>	<s>
-0.0953	go	</s>	<s>
-1.0267	inaccurate	</s>	<s>
-0.0953	incidence	</s>	<s>
-0.0953	is	</s>	<s>
-0.0953	jump	</s>	<s>
-0.0953	level	</s>	<s>
-0.0953	m	</s>	<s>
-0.0953	mean	</s>	<s>
-0.0953	one	</s>	<s>
-1.0267	place	</s>	<s>
-1.0267	point	</s>	<s>
-0.0953	procedure	</s>	<s>
-0.0953	process	</s>	<s>
-0.0792	re	</s>	<s>
-0.0953	regards	</s>	<s>
-1.0267	result	</s>	<s>
-0.0953	results	</s>	<s>
-0.0953	right	</s>	<s>
-1.0267	say	</s>	<s>
-1.0267	scary	</s>	<s>
-0.0953	scylla	</s>	<s>
-0.0953	slow	</s>	<s>
-0.0953	something	</s>	<s>
-1.0267	sphinxtrain	</s>	<s>
-0.0953	task	</s>	<s>
-1.0267	testing	</s>	<s>
-1.0267	them	</s>	<s>
-1.0267	training	</s>	<s>
-1.0267	use	</s>	<s>
-1.0267	valid	</s>	<s>
-0.0953	value	</s>	<s>
-1.0267	vectors	</s>	<s>
-0.0953	warnings	</s>	<s>
-0.0953	way	</s>	<s>
-1.0267	well	</s>	<s>
-0.0953	wer	</s>	<s>
-0.0953	why	</s>	<s>
-1.0267	wrote	</s>	<s>
-0.4105	zero	</s>	<s>
-0.0953	eighty	four	=
-0.0953	*	sixteen	=
-0.0953	for	cont	_
-1.0267	of	cont	_
-0.0953	parameters	cont	_
-0.0953	reason	cont	_
-0.0953	the	cont	_
-0.0458	and	decode	_
-0.0953	using	decode	_
-0.0669	m	g	_a
-0.0953	will	see	_a
-1.2028	<s>	as	a
-1.0267	detail	at	a
-0.0953	should	be	a
-0.0953	to	do	a
-0.3964	observation	for	a
-0.3964	will	give	a
-0.0953	i	had	a
-0.0953	correct	having	a
-0.3964	<s>	however	a
-0.0953	differently	in	a
-0.0953	vectors	in	a
-0.0953	gaussian	is	a
-0.6974	there	is	a
-0.6974	this	is	a
-0.3964	vector	is	a
-0.0953	effectively	make	a
-1.0267	observed	such	a
-0.0953	certainty	that	a
-1.2028	is	why	a
-0.4105	i	am	able
-0.0953	i	was	able
-0.0953	gaussian	was	abnormal
-0.3802	per	cent	absolute
-0.0953	we	cant	actually
-0.0953	our	implementation	actually
-0.0953	valid	in	addition
-0.0953	isnt	slow	after
-0.0953	some	years	ago
-1.0496	<s>	i	agree
-1.0267	m	i	agree
-1.0267	you	have	agreed
-0.3964	*	*	all
-2.0910	</s>	<s>	all
-0.0953	slow	after	all
-0.0953	still	assume	all
-0.3964	likelihood	for	all
-0.0953	<s>	hi	all
-0.0953	fill	in	all
-0.0953	first	of	all
-0.0953	likelihood	to	all
-0.0953	by	sphinxtrain	along
-0.3964	gaussian	will	already
-1.2175	</s>	<s>	also
-1.0267	sample	are	also
-1.6799	<s>	i	also
-1.3277	this	is	also
-1.0496	<s>	i	am
-1.0267	fact	i	am
-0.0953	there	's	an
-0.0953	result	in	an
-0.3010	arthur	chan	ananlada
-0.3964	u	c	and
-0.0953	small	change	and
-0.0953	more	components	and
-1.0267	in	decode	and
-0.0953	is	decode	and
-0.0953	that	decode	and
-0.0792	why	decode	and
-1.0267	cheating	experiments	and
-0.7943	the	mean	and
-1.0267	data	points	and
-0.0953	the	problem	and
-0.0953	for	such	and
-0.0953	under	trained	and
-0.0953	effect	causing	another
-2.0910	</s>	<s>	any
-0.0953	experiment	or	any
-0.0953	say	with	any
-0.0414	decode	_	anytopo
-2.7213	</s>	<s>	apparently
-0.3964	on	scylla	apparently
-0.0953	<s>	all	are
-0.0953	gaussian	components	are
-0.3964	variance	flooring	are
-1.4246	the	mean	are
-1.0267	one	sample	are
-1.2028	<s>	there	are
-0.0953	logic	there	are
-0.0953	result	there	are
-1.0267	training	there	are
-0.0953	where	there	are
-1.0267	that	they	are
-0.0953	since	we	are
-1.0267	gaussians	which	are
-1.0267	the	latter	arrangement
-1.3936	</s>	<s>	arthur
-1.0267	p	m	arthur
-0.0792	ravishankar	mosur	arthur
-1.9290	</s>	<s>	as
-1.5038	<s>	also	as
-1.3277	the	same	as
-1.2028	zero	vector	as
-0.7943	need	to	ask
-0.0953	implementation	actually	assigns
-0.0953	will	still	assume
-0.0953	computation	will	assume
-2.0910	</s>	<s>	at
-0.3964	the	complication	at
-1.0267	more	detail	at
-1.5038	thousand	five	at
-1.0267	to	look	at
-1.0267	<s>	on	aug
-0.4105	six	g	b
-0.0953	four	k	b
-0.0953	zero	k	b
-0.0953	vector	could	be
-1.0267	might	just	be
-1.0267	there	must	be
-0.0953	there	should	be
-0.0953	won	t	be
-0.0953	gaussians	to	be
-1.0267	u	to	be
-1.0267	variance	to	be
-0.3964	gaussian	will	be
-0.0953	variance	will	be
-0.0953	vector	will	be
-0.0953	there	wont	be
-0.5725	g	b	before
-0.0953	were	removed	before
-1.0267	i	also	believe
-1.5708	we	will	believe
-0.0953	give	a	better
-0.0953	potentially	give	better
-1.0267	such	a	big
-1.0267	<s>	calo	big
-1.6288	the	calo	big
-0.3964	directory	on	bigbird
-0.0953	data	to	bigbird
-0.0953	transfer	to	bigbird
-2.7213	</s>	<s>	both
-0.0953	are	correct	but
-1.2028	be	zero	but
-0.0953	warning	printed	by
-1.0267	are	trained	by
-1.0267	was	trained	by
-0.7943	the	variance	by
-0.0953	is	gauden	c
-0.0953	i	n	c
-0.0953	y	n	c
-0.0953	/	senones	c
-1.5038	_a	u	c
-2.7213	</s>	<s>	calo
-0.4393	in	the	calo
-1.0267	yet	in	calobig
-1.0953	_	anytopo	can
-1.0267	similar	treatment	can
-0.5725	<s>	we	can
-0.0953	before	we	can
-1.0267	we	probably	cant
-0.0953	numbers	we	cant
-1.0496	<s>	i	carry
-1.3277	in	some	case
-1.4378	in	the	case
-1.3277	in	some	cases
-0.0953	only	the	cause
-0.0953	what	the	cause
-0.0953	in	effect	causing
-1.0267	eleven	per	cent
-0.0953	fifteen	per	cent
-0.0953	one	per	cent
-0.0792	ten	per	cent
-0.4105	two	per	cent
-1.0267	at	a	certain
-0.0953	with	any	certainty
-0.5354	<s>	arthur	chan
-1.0267	m	arthur	chan
-0.0792	mosur	arthur	chan
-1.0267	will	perhaps	change
-0.0953	a	small	change
-1.0267	reasons	to	change
-0.0953	u	was	changed
-0.2041	the	calo	cheating
-1.0267	in	our	cheating
-1.2758	in	the	cheating
-0.6974	to	the	cheating
-0.3964	is	not	checked
-0.0792	chan	ananlada	chotimongkol
-0.0953	or	very	close
-0.0953	however	a	closer
-2.0681	in	the	code
-0.0953	are	welcomed	code
-1.6288	<s>	the	complication
-0.0953	is	each	component
-0.3964	the	gaussian	component
-0.9404	seventy	seven	component
-1.0267	have	fewer	components
-0.3964	the	gaussian	components
-0.0953	of	more	components
-0.0953	thirty	nine	components
-0.0953	number	of	components
-0.0953	eight	one	components
-0.2430	m	m	computation
-1.5038	i	will	conclude
-0.0953	experiment	that	confirms
-0.0953	<s>	for	cont
-1.0267	implementation	of	cont
-0.0953	variance	parameters	cont
-0.9984	the	reason	cont
-0.3964	is	the	cont
-0.0953	components	are	correct
-0.0953	were	mathematically	correct
-0.0953	is	more	correct
-1.0267	a	gaussian	could
-1.2028	why	i	could
-0.0953	mean	vector	could
-0.7943	of	the	current
-2.0910	</s>	<s>	currently
-0.4105	david	huggins	daines
-1.0267	much	more	data
-0.0953	the	training	data
-0.0953	apparently	transferring	data
-2.0910	</s>	<s>	dave
-0.0953	know	recently	dave
-2.7213	</s>	<s>	david
-1.0953	arthur	chan	david
-0.0953	we	are	dealing
-0.0953	tomorrow	to	decide
-0.0953	a	hard	decision
-0.0458	decode	and	decode
-1.5708	difference	in	decode
-0.0953	happens	is	decode
-0.0953	and	make	decode
-0.0953	discovered	that	decode
-0.0953	he	used	decode
-0.0953	whereas	using	decode
-0.1461	reason	why	decode
-0.0953	results	in	defunct
-0.0953	treatment	to	defunct
-0.6974	is	a	description
-2.7213	</s>	<s>	despite
-1.0267	in	more	detail
-0.0792	cent	absolute	difference
-1.0267	a	big	difference
-0.0953	are	subtly	different
-0.3964	using	two	different
-0.0953	perform	very	differently
-0.0953	currently	your	directory
-0.0953	the	your	directory
-0.0953	dave	has	discovered
-0.0953	healthy	gaussian	distributions
-0.6974	able	to	do
-0.0953	ways	of	doing
-0.3964	n	c	e
-0.0953	that	is	each
-0.0953	that	in	effect
-0.0953	gaussian	component	effectively
-0.0953	sixteen	gaussian	effectively
-1.3277	removal	will	effectively
-0.0953	two	five	eight
-0.4105	phone	office	eight
-0.6974	five	hundred	eighty
-0.0953	four	hundred	eighty
-0.0953	instead	of	eleven
-0.0953	him	~	eleven
-0.0953	is	exactly	equal
-0.0953	observations	that	equal
-2.0910	</s>	<s>	evandro
-0.5725	here	is	even
-1.0267	floor	them	even
-1.0267	while	flooring	everything
-0.0953	observation	is	exactly
-0.0953	two	perform	exactly
-0.0953	a	closer	examination
-0.0792	calo	cheating	experiment
-1.0267	our	cheating	experiment
-1.3277	the	cheating	experiment
-0.0953	out	one	experiment
-1.3277	the	cheating	experiments
-0.0953	of	my	experiments
-1.0267	in	other	experiments
-1.0267	despite	the	fact
-1.0267	will	have	fewer
-0.0953	sixteen	=	fifteen
-0.0953	that	means	fifty
-1.3277	able	to	figure
-2.0910	</s>	<s>	file
-0.0953	it	just	fill
-2.0910	</s>	<s>	first
-2.0681	in	the	first
-1.0267	aug	thirty	first
-0.0953	one	+	five
-0.0953	causing	another	five
-0.9404	there	are	five
-0.0953	that	having	five
-0.3964	one	point	five
-1.0267	this	situation	five
-0.4105	nine	thousand	five
-0.5354	two	thousand	five
-0.0953	two	two	five
-0.0953	dealing	with	floating
-1.5038	we	should	floor
-0.6974	to	the	floor
-0.7943	the	variance	floor
-0.5725	will	be	floored
-1.0267	components	were	floored
-0.0953	removed	before	flooring
-0.3964	through	the	flooring
-0.0953	doing	variance	flooring
-0.7943	the	variance	flooring
-1.0267	none	while	flooring
-0.3964	a	result	following
-2.0910	</s>	<s>	for
-0.0953	infinite	likelihood	for
-0.3964	zero	likelihood	for
-0.0953	no	observation	for
-0.0953	single	observation	for
-0.0953	many	parameters	for
-1.0267	should	record	for
-0.0953	twenty	one	forty
-0.3964	hundred	eighty	four
-0.5354	five	hundred	four
-0.0953	two	point	four
-0.0953	four	thousand	four
-0.0953	hundred	twenty	four
-1.0267	record	for	further
-1.0267	not	speculate	further
-0.0953	two	different	g
-0.0669	_	m	g
-0.0953	point	six	g
-1.0267	seventy	six	g
-0.3964	if	the	g
-2.0681	in	the	g
-0.3964	why	the	g
-0.0953	however	in	gauden
-0.3964	one	is	gauden
-1.0267	treatment	of	gauden
-0.0953	<s>	whereas	gauden
-1.0267	why	a	gaussian
-0.0953	to	defunct	gaussian
-0.0953	those	healthy	gaussian
-0.5725	is	no	gaussian
-1.0267	cent	of	gaussian
-0.0953	lot	of	gaussian
-0.0953	with	sixteen	gaussian
-0.0953	all	the	gaussian
-0.0953	remove	the	gaussian
-0.3964	the	whole	gaussian
-0.9404	seventy	seven	gaussians
-1.0267	believe	those	gaussians
-1.0267	remove	those	gaussians
-0.6974	able	to	get
-0.0953	and	potentially	give
-0.0953	anytopo	will	give
-0.0953	arrangement	will	give
-0.0953	for	a	given
-0.0953	that	a	given
-0.0953	way	to	go
-0.0953	not	will	go
-0.0953	vectors	will	go
-0.0953	it	's	going
-0.0953	wer	he	got
-1.0496	<s>	i	guess
-2.7213	</s>	<s>	h
-0.0953	all	i	had
-1.0267	what	will	happen
-1.0267	this	just	happens
-0.0953	<s>	what	happens
-0.6974	is	a	hard
-0.3010	_	anytopo	has
-0.0953	on	bigbird	has
-0.0953	recently	dave	has
-0.3964	on	scylla	has
-1.0267	gaussian	could	have
-0.5725	why	i	have
-1.0267	ravi	might	have
-1.3277	of	them	have
-0.0953	whether	they	have
-1.0267	cases	we	have
-1.5708	we	will	have
-1.2028	as	you	have
-0.3964	also	we	haven
-0.3964	also	we	havent
-0.0953	mathematically	correct	having
-0.0953	my	experiments	having
-0.0953	notice	that	having
-0.3964	<s>	if	he
-0.0953	the	wer	he
-0.0953	to	those	healthy
-1.0267	treatment	can	help
-0.0953	complication	at	here
-0.3964	the	complication	here
-0.0953	strange	thing	here
-2.0910	</s>	<s>	hi
-0.3964	will	give	him
-2.7213	</s>	<s>	however
-1.0267	<s>	david	huggins
-0.0953	chan	david	huggins
-0.1761	thousand	five	hundred
-0.0953	thousand	four	hundred
-0.0669	thousand	one	hundred
-0.0953	then	two	hundred
-1.0414	</s>	<s>	i
-0.0953	after	all	i
-0.0953	problem	and	i
-1.0267	the	fact	i
-1.5708	m	m	i
-1.0267	no	objection	i
-0.0953	this	point	i
-0.0953	s	s	i
-0.0953	will	say	i
-0.0953	's	why	i
-1.5708	reason	why	i
-0.0953	<s>	any	idea
-2.7213	</s>	<s>	if
-0.3964	u	c	if
-0.0953	be	floored	if
-0.0953	i	guess	if
-1.0267	more	sense	if
-0.0953	e	our	implementation
-0.0969	change	the	implementation
-2.0910	</s>	<s>	in
-1.0267	have	agreed	in
-1.0267	<s>	apparently	in
-0.0953	not	checked	in
-0.0953	of	components	in
-0.0792	absolute	difference	in
-1.0267	big	difference	in
-0.0953	very	differently	in
-0.0953	gaussian	distributions	in
-0.0953	just	fill	in
-1.0267	will	happen	in
-1.0267	just	happens	in
-1.0267	can	help	in
-0.3964	<s>	however	in
-1.3277	the	implementation	in
-0.0953	understand	it	in
-0.0953	something	normal	in
-0.0953	all	observations	in
-0.0953	to	perform	in
-1.0267	<s>	possibly	in
-0.0953	should	result	in
-0.0953	and	results	in
-1.0267	to	safeguard	in
-1.0267	make	sense	in
-0.0953	test	set	in
-0.0953	zero	that	in
-1.2028	at	this	in
-0.0953	be	valid	in
-0.6974	variance	vectors	in
-0.0953	ask	why	in
-1.0267	anytopo	yet	in
-0.0953	all	zero	in
-1.0267	they	are	inaccurate
-0.3964	in	this	incidence
-1.2028	so	this	incidence
-0.6974	this	is	indeed
-0.0953	in	an	infinite
-0.3964	cent	wer	instead
-0.0953	time	on	investigating
-2.0910	</s>	<s>	is
-0.3964	the	cause	is
-0.0953	welcomed	code	is
-0.0953	defunct	gaussian	is
-0.0953	he	got	is
-0.0953	what	happens	is
-0.0953	at	here	is
-0.0953	complication	here	is
-0.0953	thing	here	is
-0.0953	that	it	is
-0.0953	yes	it	is
-0.0953	given	observation	is
-0.0953	<s>	one	is
-0.0953	and	one	is
-0.0953	that	s	is
-1.0267	<s>	second	is
-0.0953	a	system	is
-0.5725	<s>	that	is
-0.4105	if	there	is
-0.0953	though	there	is
-1.0267	<s>	this	is
-0.0953	confirms	this	is
-0.5725	so	this	is
-0.0953	its	value	is
-1.2028	variance	vector	is
-0.0953	/	s	isnt
-1.9290	</s>	<s>	it
-0.0953	correct	but	it
-0.0953	me	that	it
-0.0953	can	understand	it
-0.9404	zero	variance	it
-0.0953	idea	why	it
-0.0953	that	yes	it
-0.0953	floored	if	its
-0.6974	<s>	so	its
-0.0953	parameter	then	its
-0.0953	make	me	jump
-0.0953	but	it	just
-1.0267	incidence	might	just
-1.0267	mail	this	just
-0.0953	point	four	k
-0.0953	oh	zero	k
-0.0953	you	might	know
-1.0267	though	we	know
-0.0953	used	the	latter
-0.3964	why	the	latter
-0.0953	would	use	less
-0.0953	cent	performance	level
-0.0953	an	infinite	likelihood
-0.0953	and	zero	likelihood
-0.0953	assigns	zero	likelihood
-0.0953	along	the	lines
-0.0953	the	normal	logic
-1.4246	need	to	look
-0.0953	make	a	lot
-0.0669	cont	_	m
-0.0953	different	g	m
-0.0969	the	g	m
-1.0267	<s>	h	m
-0.0792	g	m	m
-1.0267	h	m	m
-1.0267	nineteen	p	m
-1.0267	the	other	mail
-0.0953	will	already	make
-0.0953	change	and	make
-1.0267	<s>	both	make
-0.0953	gaussian	effectively	make
-1.4246	seems	to	make
-1.0267	be	that	many
-0.0953	are	too	many
-0.0953	computation	were	mathematically
-0.0953	<s>	well	maybe
-0.0953	already	make	me
-0.6323	seems	to	me
-1.0267	will	effectively	mean
-1.0267	but	the	mean
-0.0953	equal	the	mean
-0.6974	to	the	mean
-0.0953	zero	the	mean
-1.3277	removal	will	mean
-0.0953	system	that	means
-1.2028	this	incidence	might
-1.0267	believe	ravi	might
-0.5725	as	you	might
-0.0953	and	such	models
-0.0953	p	s	modem
-1.0267	this	in	more
-0.3964	it	is	more
-1.0267	to	make	more
-1.0267	by	much	more
-0.0953	use	of	more
-0.0953	senones	c	most
-0.0953	<s>	in	most
-0.0953	<s>	ravishankar	mosur
-1.0267	chan	ravishankar	mosur
-1.0267	daines	ravishankar	mosur
-1.3277	trained	by	much
-1.0267	say	too	much
-1.0267	that	there	must
-0.3964	most	of	my
-0.0953	s	i	n
-0.0953	s	y	n
-1.3277	something	we	need
-0.0953	things	we	need
-1.5708	we	will	need
-0.0953	one	forty	nine
-0.0953	*	thirty	nine
-0.4105	eight	to	nine
-1.0267	at	six	nineteen
-0.0953	the	current	no
-0.5354	there	is	no
-1.0267	mean	are	non
-0.0953	could	be	non
-0.7943	of	the	non
-1.0267	we	have	none
-0.0953	not	something	normal
-0.0953	following	the	normal
-1.0267	i	could	not
-0.0953	code	is	not
-0.0953	system	is	not
-0.0953	vector	or	not
-0.8735	<s>	also	notice
-0.0953	use	less	number
-0.0953	floating	point	numbers
-1.2028	is	no	objection
-0.3964	a	given	observation
-0.0953	current	no	observation
-0.0953	a	single	observation
-0.0953	to	all	observations
-0.3964	likelihood	for	observations
-0.0953	we	havent	observed
-0.0953	haven	t	observed
-2.0910	</s>	<s>	of
-0.0953	the	case	of
-0.3964	the	cause	of
-1.8049	per	cent	of
-1.0267	the	code	of
-0.0953	each	component	of
-0.0953	<s>	first	of
-1.3277	the	implementation	of
-0.0953	wer	instead	of
-0.0953	the	lines	of
-0.0953	a	lot	of
-0.0953	c	most	of
-0.0953	in	most	of
-0.0953	less	number	of
-1.0267	are	plenty	of
-0.0953	the	rest	of
-1.5708	seventy	seven	of
-1.0267	the	treatment	of
-0.0953	the	use	of
-0.0953	their	ways	of
-0.4105	<s>	phone	office
-0.0953	maybe	one	oh
-2.7213	</s>	<s>	on
-1.0267	your	directory	on
-0.0953	process	running	on
-0.0953	some	time	on
-2.0910	</s>	<s>	one
-0.0953	c	and	one
-0.0953	hard	decision	one
-0.0953	five	eight	one
-0.3964	hundred	eighty	one
-0.0953	means	fifty	one
-0.0953	to	get	one
-0.0953	got	is	one
-0.0953	well	maybe	one
-1.0267	by	only	one
-0.0953	carry	out	one
-0.3964	one	point	one
-0.0953	zero	point	one
-1.4378	in	the	one
-0.0669	five	thousand	one
-0.0953	/	twenty	one
-0.9404	there	are	only
-1.3277	trained	by	only
-0.0953	say	i	only
-1.0496	cheating	experiment	or
-0.6974	the	same	or
-1.0267	as	variance	or
-0.5725	variance	vector	or
-0.0953	or	any	other
-1.0267	happen	in	other
-2.0681	in	the	other
-0.0953	for	all	others
-0.0953	c	e	our
-1.0267	apparently	in	our
-0.0953	i	carry	out
-1.0267	to	figure	out
-0.3964	k	b	p
-1.0267	six	nineteen	p
-0.3964	a	given	parameter
-0.0953	too	many	parameters
-0.0953	defunct	variance	parameters
-0.3964	in	a	particular
-0.0953	of	eleven	per
-0.0953	~	eleven	per
-0.0953	=	fifteen	per
-0.3964	point	one	per
-0.0792	has	ten	per
-0.0953	five	two	per
-0.0953	one	two	per
-0.0953	to	two	per
-0.0953	anytopo	can	perform
-0.0953	decode	to	perform
-0.0953	the	two	perform
-1.1745	per	cent	performance
-1.5038	i	will	perhaps
-1.9290	</s>	<s>	phone
-1.0267	the	first	place
-0.3964	is	the	plan
-1.5708	there	are	plenty
-1.0267	a	certain	point
-0.0953	with	floating	point
-0.0953	get	one	point
-0.0953	is	one	point
-0.5725	at	this	point
-0.0953	has	three	point
-0.0953	a	two	point
-0.0953	having	zero	point
-1.0267	more	data	points
-2.7213	</s>	<s>	possibly
-0.0953	components	and	potentially
-0.0953	a	warning	printed
-1.0267	and	we	probably
-0.7943	of	the	problem
-0.3964	variance	flooring	procedure
-0.3964	n	c	process
-0.0953	the	flooring	process
-0.0953	gaussian	removal	process
-0.0953	's	an	r
-1.0267	also	believe	ravi
-0.0953	talk	with	ravi
-2.0910	</s>	<s>	ravishankar
-1.7257	arthur	chan	ravishankar
-1.2028	huggins	daines	ravishankar
-1.3936	</s>	<s>	re
-1.0267	<s>	resent	re
-0.2041	<s>	the	reason
-0.0953	indeed	the	reason
-1.0267	out	the	reason
-1.0267	have	some	reasons
-0.0953	might	know	recently
-1.5038	we	should	record
-2.0910	</s>	<s>	regards
-1.0267	some	case	removal
-0.0953	no	gaussian	removal
-1.0267	everything	without	removal
-1.5038	we	should	remove
-0.0953	u	which	remove
-0.5725	will	be	removed
-0.0953	component	were	removed
-2.7213	</s>	<s>	resent
-0.0953	removed	the	rest
-1.0267	as	a	result
-0.0953	a	better	result
-0.0953	give	better	result
-0.0953	variance	should	result
-0.0953	trained	and	results
-0.6974	the	same	results
-0.0953	all	others	right
-0.0953	correct	to	round
-0.0953	c	process	running
-0.0953	b	/	s
-2.0910	</s>	<s>	s
-0.0953	b	p	s
-0.0953	an	r	s
-0.0953	<s>	s	s
-0.5725	<s>	that	s
-1.4246	need	to	safeguard
-1.0267	be	the	same
-0.0953	exactly	the	same
-0.6974	to	the	same
-1.0267	only	one	sample
-0.0953	cant	actually	say
-1.0267	probably	cant	say
-0.0953	component	effectively	say
-0.8735	i	will	say
-1.0267	what	you	say
-1.0267	also	something	scary
-0.3964	directory	on	scylla
-0.0953	running	on	scylla
-0.0953	can	upgrade	scylla
-2.7213	</s>	<s>	second
-0.9404	we	will	see
-1.0267	of	gauden	seems
-0.4105	<s>	it	seems
-0.0953	variance	it	seems
-0.6974	two	thousand	senone
-0.0953	c	/	senones
-1.0267	both	make	sense
-1.0267	make	more	sense
-0.0953	particular	test	set
-0.0669	hundred	seventy	seven
-0.0953	one	seventy	seven
-0.0953	scylla	has	seventy
-0.0669	one	hundred	seventy
-0.0953	fifty	one	seventy
-0.3964	the	whole	seventy
-0.0953	agree	there	should
-0.9404	zero	variance	should
-1.0267	or	we	should
-1.3277	something	we	should
-1.0267	whether	we	should
-0.0953	closer	examination	shows
-1.0267	further	whether	similar
-0.8735	<s>	also	since
-0.6974	is	a	single
-0.0953	any	other	situation
-1.0267	have	this	situation
-1.0267	five	at	six
-0.0953	three	point	six
-0.0953	has	seventy	six
-0.0953	whole	seventy	six
-0.0953	nine	*	sixteen
-0.0953	senone	with	sixteen
-0.0953	s	isnt	slow
-0.0953	going	so	slow
-0.0953	do	a	small
-0.0953	value	is	smaller
-1.3936	</s>	<s>	so
-0.0953	's	going	so
-0.0953	removal	process	so
-0.0953	in	yet	so
-1.0267	might	have	some
-1.0267	possibly	in	some
-1.0267	sense	in	some
-0.0953	s	modem	some
-0.0953	have	spent	some
-1.0267	is	also	something
-1.0267	just	be	something
-1.0267	must	be	something
-0.0953	variance	by	something
-0.3964	it	is	something
-0.3964	is	not	something
-0.0953	is	something	specific
-1.0267	could	not	speculate
-0.0953	i	have	spent
-0.0953	printed	by	sphinxtrain
-1.0267	code	of	sphinxtrain
-0.0953	gauden	will	still
-0.9984	<s>	the	strange
-0.0953	flooring	are	subtly
-0.0953	such	and	such
-0.3964	observation	for	such
-0.0953	havent	observed	such
-0.0953	t	observed	such
-0.3964	in	a	system
-1.0496	cheating	experiment	system
-0.0953	we	haven	t
-0.0953	there	won	t
-0.8735	i	will	talk
-0.9984	the	calo	task
-0.0792	anytopo	has	ten
-0.0953	a	particular	test
-1.0267	in	calobig	testing
-0.0953	is	smaller	than
-1.9290	</s>	<s>	that
-0.0953	t	be	that
-0.0953	wont	be	that
-0.0953	any	certainty	that
-1.0267	will	conclude	that
-0.0953	has	discovered	that
-0.0953	one	experiment	that
-1.0267	we	know	that
-0.5725	to	me	that
-1.0267	effectively	mean	that
-0.0953	also	notice	that
-0.0953	for	observations	that
-0.6974	it	seems	that
-0.0953	examination	shows	that
-0.0953	experiment	system	that
-0.6974	non	zero	that
-1.1505	</s>	<s>	the
-0.0953	assume	all	the
-0.0953	sphinxtrain	along	the
-0.0953	will	assume	the
-1.4246	to	be	the
-1.0267	zero	but	the
-1.0267	perhaps	change	the
-1.0267	to	change	the
-0.0953	used	decode	the
-1.0267	<s>	despite	the
-0.0953	that	equal	the
-0.0953	perform	exactly	the
-0.0953	result	following	the
-0.0953	parameters	for	the
-0.3964	<s>	if	the
-0.0953	c	if	the
-1.0267	agreed	in	the
-0.0953	components	in	the
-0.1461	difference	in	the
-0.0953	distributions	in	the
-1.0267	happens	in	the
-1.0267	help	in	the
-1.0267	implementation	in	the
-0.0953	normal	in	the
-0.0953	observations	in	the
-0.0953	perform	in	the
-1.0267	safeguard	in	the
-0.0953	set	in	the
-0.0953	zero	in	the
-0.0953	is	indeed	the
-0.0953	<s>	is	the
-0.3964	one	is	the
-1.2028	to	me	the
-0.0953	cause	of	the
-0.0953	component	of	the
-0.0953	lines	of	the
-0.3964	most	of	the
-0.0953	rest	of	the
-0.0953	i	only	the
-1.0267	figure	out	the
-0.0953	which	remove	the
-0.0953	be	removed	the
-0.0953	smaller	than	the
-0.5725	even	though	the
-1.0267	go	through	the
-0.0953	the	time	the
-0.0953	close	to	the
-0.0953	equal	to	the
-0.0953	specific	to	the
-0.0953	variances	to	the
-0.0953	to	transfer	the
-0.0953	to	used	the
-0.5725	zero	vector	the
-0.0953	of	what	the
-0.0953	b	while	the
-0.0953	all	why	the
-0.5725	is	why	the
-0.0953	is	zero	the
-0.0953	shows	that	their
-1.0267	should	floor	them
-1.0267	plenty	of	them
-1.0267	seven	of	them
-0.9404	there	are	then
-0.0953	given	parameter	then
-1.9290	</s>	<s>	there
-0.5725	i	agree	there
-1.0267	points	and	there
-0.0953	guess	if	there
-1.0267	sense	if	there
-0.0953	normal	logic	there
-0.3964	a	result	there
-1.0267	conclude	that	there
-0.0953	gauden	though	there
-1.0267	experiment	training	there
-0.0953	situation	where	there
-1.0267	know	that	they
-0.0953	vectors	whether	they
-0.0953	the	strange	thing
-0.0953	are	two	things
-0.0953	seven	*	thirty
-1.0267	on	aug	thirty
-2.7213	</s>	<s>	this
-0.0953	<s>	at	this
-1.0267	look	at	this
-0.0953	that	confirms	this
-1.0267	them	have	this
-0.0953	it	in	this
-0.0953	why	in	this
-1.0267	other	mail	this
-0.5354	<s>	so	this
-1.0267	will	believe	those
-1.0267	should	remove	those
-0.0953	addition	to	those
-0.0953	is	even	though
-1.0267	them	even	though
-0.0953	in	gauden	though
-0.0953	+	five	thousand
-0.0953	another	five	thousand
-0.0953	are	five	thousand
-0.0953	having	five	thousand
-1.0267	situation	five	thousand
-0.0953	twenty	four	thousand
-0.4105	to	nine	thousand
-1.0267	first	two	thousand
-0.0953	twenty	two	thousand
-0.3964	using	two	thousand
-0.0953	bigbird	has	three
-1.0267	will	go	through
-0.0953	spent	some	time
-0.7943	of	the	time
-0.4105	am	able	to
-0.0953	was	able	to
-0.0953	in	addition	to
-0.0953	was	changed	to
-0.0953	very	close	to
-0.0953	more	correct	to
-0.0953	transferring	data	to
-0.0953	make	decode	to
-0.4105	office	eight	to
-0.0953	exactly	equal	to
-0.0953	seven	gaussians	to
-0.3964	zero	likelihood	to
-0.4105	we	need	to
-1.0267	will	need	to
-0.0953	the	one	to
-0.0953	the	plan	to
-1.0267	some	reasons	to
-1.0267	gauden	seems	to
-0.5354	it	seems	to
-0.0953	something	specific	to
-0.0953	ravi	tomorrow	to
-0.0953	file	transfer	to
-0.0953	its	treatment	to
-1.5038	_a	u	to
-1.0267	have	variance	to
-0.0953	zero	variances	to
-0.0953	which	way	to
-0.0953	with	ravi	tomorrow
-0.9404	there	are	too
-1.0267	cant	say	too
-1.0267	which	are	trained
-0.0953	gaussian	under	trained
-1.0267	big	was	trained
-1.3277	calo	big	training
-1.6799	cheating	experiment	training
-0.0953	for	the	training
-0.0953	<s>	file	transfer
-0.0953	plan	to	transfer
-0.0953	scylla	apparently	transferring
-0.0953	so	its	treatment
-1.0267	whether	similar	treatment
-1.0267	me	the	treatment
-0.0953	seven	/	twenty
-0.0953	four	=	twenty
-0.0953	two	hundred	twenty
-0.0953	had	a	two
-0.9404	there	are	two
-1.0267	thirty	first	two
-0.0953	point	five	two
-0.3964	point	one	two
-0.0953	are	only	two
-0.0953	time	the	two
-0.0953	are	then	two
-0.0953	one	to	two
-0.0953	=	twenty	two
-0.0953	only	two	two
-0.0953	<s>	using	two
-0.0953	were	using	two
-0.0669	g	_a	u
-0.5725	of	gaussian	under
-0.3964	we	can	understand
-0.0953	to	round	up
-0.3964	we	can	upgrade
-1.0267	for	further	use
-0.0953	assume	the	use
-0.0953	we	would	use
-0.0953	if	he	used
-0.0953	changed	to	used
-2.0910	</s>	<s>	using
-0.0953	anytopo	were	using
-0.0953	cent	whereas	using
-1.0267	are	also	valid
-0.7943	to	be	valid
-0.0953	the	floor	value
-0.0953	if	its	value
-1.0267	vector	as	variance
-0.0953	in	defunct	variance
-0.0953	of	doing	variance
-1.0267	could	have	variance
-0.0953	then	its	variance
-0.3964	if	the	variance
-1.4378	in	the	variance
-0.0953	than	the	variance
-0.0953	though	the	variance
-0.3964	through	the	variance
-0.3964	a	zero	variance
-0.0953	have	zero	variance
-1.0267	many	zero	variance
-0.6974	non	zero	variance
-0.0953	of	zero	variance
-0.0953	seven	zero	variance
-0.0953	up	zero	variances
-0.7943	the	mean	vector
-0.7943	of	the	vector
-1.4246	the	variance	vector
-0.9404	zero	variance	vector
-0.3964	a	zero	vector
-1.0267	with	zero	vector
-0.3964	*	*	vectors
-0.2430	zero	variance	vectors
-0.0953	same	or	very
-0.0953	can	perform	very
-0.0953	be	a	warning
-0.0953	such	models	warnings
-1.3277	calo	big	was
-0.5725	of	gaussian	was
-0.0953	and	i	was
-0.8735	_a	u	was
-0.3964	in	this	way
-0.0953	decide	which	way
-0.0953	that	their	ways
-1.9290	</s>	<s>	we
-1.5038	<s>	also	we
-1.0267	experiments	and	we
-0.0953	b	before	we
-1.0267	some	cases	we
-1.0267	will	mean	we
-0.0953	point	numbers	we
-1.0267	variance	or	we
-0.0953	effectively	say	we
-0.0953	also	since	we
-0.0953	yet	so	we
-0.0969	be	something	we
-1.0267	mean	that	we
-0.0953	two	things	we
-1.2028	even	though	we
-1.0267	is	whether	we
-0.0953	all	are	welcomed
-2.0910	</s>	<s>	well
-1.0267	same	as	well
-1.8049	per	cent	wer
-0.0953	decode	the	wer
-1.0953	_	anytopo	were
-0.0953	seven	component	were
-0.0953	nine	components	were
-0.0953	one	components	were
-0.6974	m	computation	were
-2.0910	</s>	<s>	what
-1.0267	too	much	what
-0.0953	<s>	of	what
-1.0267	agree	with	what
-0.0953	other	situation	where
-2.0910	</s>	<s>	whereas
-1.1745	per	cent	whereas
-1.0267	speculate	further	whether
-1.2028	here	is	whether
-0.0953	*	vectors	whether
-0.0953	to	decide	which
-1.3277	those	gaussians	which
-0.8735	_a	u	which
-0.5725	g	b	while
-1.0267	have	none	while
-0.0953	transfer	the	whole
-0.0953	vector	the	whole
-0.0953	that	's	why
-0.0953	of	all	why
-0.0953	to	ask	why
-0.0953	any	idea	why
-0.0953	on	investigating	why
-0.0953	s	is	why
-1.0267	second	is	why
-0.0580	the	reason	why
-1.0953	_	anytopo	will
-0.3964	latter	arrangement	will
-0.6974	m	computation	will
-0.0953	whereas	gauden	will
-0.5725	of	gaussian	will
-0.0953	whole	gaussian	will
-0.8876	<s>	i	will
-1.0267	objection	i	will
-0.0953	point	i	will
-0.0953	or	not	will
-1.0267	case	removal	will
-1.0267	without	removal	will
-0.0953	its	variance	will
-0.0953	the	vector	will
-0.6974	variance	vectors	will
-1.2028	<s>	we	will
-1.0267	mean	we	will
-0.0953	so	we	will
-1.0267	that	we	will
-1.0267	much	what	will
-1.2028	i	agree	with
-0.0953	are	dealing	with
-1.3277	those	gaussians	with
-0.0953	actually	say	with
-0.0953	thousand	senone	with
-0.0953	will	talk	with
-1.0267	flooring	everything	without
-0.3964	and	there	won
-0.3964	and	there	wont
-0.0953	say	we	would
-1.7257	arthur	chan	wrote
-0.0953	r	s	y
-0.0953	modem	some	years
-0.0953	seems	that	yes
-1.7257	_	anytopo	yet
-0.0953	checked	in	yet
-0.5725	<s>	as	you
-1.0267	also	as	you
-1.0267	with	what	you
-0.0953	<s>	currently	your
-0.0953	while	the	your
-0.0953	having	a	zero
-0.6974	is	a	zero
-0.0953	in	all	zero
-0.0953	mean	and	zero
-0.0953	actually	assigns	zero
-1.4246	to	be	zero
-0.5725	will	be	zero
-0.0953	they	have	zero
-0.0953	experiments	having	zero
-0.3964	vector	is	zero
-1.0267	that	many	zero
-1.0267	are	non	zero
-0.0953	be	non	zero
-0.0953	the	non	zero
-0.0953	case	of	zero
-0.0953	one	oh	zero
-0.9404	seventy	seven	zero
-0.0953	round	up	zero
-1.0267	gaussians	with	zero
-0.0953	why	it	's

\end\
